-1.2936543 -0.811783 0.79608756 -1.9618568 -0.62248445 0.9699565 0.9784592 0.82198864 1.9625989 -2.0039568
1.0898693 -0.3727919 0.64699394 0.11710502 -0.8716648 -0.6666156 -1.6282445 0.19850765 1.3617042 -0.22607337
1.3550093 -0.1883714 0.0015195927 -1.330436 2.3341088 -0.68808335 0.76145405 0.20282216 1.723688 0.5108494
0.24899963 -1.5023438 -0.63667357 -0.91009384 -0.6428159 0.3555273 -1.2149082 0.07047591 0.17243941 -0.9351744
-0.94803697 0.30362096 2.0796561 -0.8050655 0.06556221 -0.47437143 -0.1138988 0.34374854 -0.5599831 0.16078375
-1.1178509 0.26883808 -1.7783929 0.66499484 -0.97760504 -1.9016914 0.8777169 -0.17368133 0.31568736 0.46108392
-0.56975126 1.5827702 -1.9170132 3.1914067 -0.9047315 0.29550514 -0.7120234 -0.76916045 1.7943963 0.5124336
1.5402012 1.5288385 1.5125291 -1.1717741 -1.6931838 0.04593627 0.016358009 2.047143 -0.20275337 0.8271865
2.74168 -1.3726542 1.3970715 -1.3655598 -0.36769688 -0.56963724 1.3293821 1.1633682 0.57914627 -0.9577905
0.57478625 0.010330661 -0.0016162137 0.26057026 1.2654976 -0.81336385 1.6648265 0.8319543 -0.5205155 1.8258247
0.5344311 -1.3696384 0.4346035 -1.5943555 0.32125142 -1.0506411 -0.5686049 0.3858599 0.05559502 -0.40938142
-0.615656 0.86160725 -2.2451887 1.6767769 -0.70996064 0.17838301 0.54635984 -1.0548531 -0.7198398 0.55048555
0.4211961 -0.6134229 0.035614796 0.23015776 -0.07284595 -0.3428292 0.9294512 -0.16446663 1.1534463 -0.663818
1.1855218 0.69202685 -0.8521732 -0.4367752 0.5334333 1.3143507 1.1162641 2.3330722 0.497979 0.47998726
1.0317388 -1.0260438 -0.09290549 0.22181559 0.26405665 -0.7208976 1.122108 0.055190496 -1.8341631 0.65330905
-0.10126897 0.5188273 -1.151104 1.29533 -0.2571047 -0.81926334 -0.067815304 1.0045053 -1.1531553 -0.76768345
0.94494843 -0.9678208 0.10324252 0.36709586 0.026006127 1.6898389 -1.6400778 0.5692909 -2.0668592 -1.8843868
0.3364003 1.0737967 0.7240281 -2.1889179 0.39648724 -0.2373395 0.8717947 -0.1893887 -0.5272717 1.170677
-0.73560834 -0.15110521 -1.0888503 0.39798385 0.10809173 0.00767098 -1.4027438 -1.0043038 1.3277242 -1.6318054
-0.84823793 -1.0840993 -0.78771985 -1.8660868 -0.85382414 -0.45335317 0.257676 0.7296321 0.2153814 2.5852764
-1.9025998 -0.9133646 -1.2165293 0.073821135 -0.39725423 0.5056256 1.492202 -1.0065395 0.35783276 0.13895798
-0.28728566 -0.9445881 -0.4476897 1.0481731 2.2069693 1.4286376 0.3531756 -2.4565759 -0.7552805 0.35876814
0.015722029 0.7107449 -0.93540215 -0.47727174 0.6752282 -0.27098072 1.7627676 0.7870625 0.72800994 0.2511284
-0.6976905 -0.54059005 0.93317455 -0.67700934 -2.193398 0.515131 -0.8095596 0.07019095 1.3392079 -0.6339323
-0.22140728 0.9448066 -2.1806107 0.28380895 1.880784 1.3775144 -1.2605169 2.008779 0.89919627 0.52302563
0.044426337 0.171342 -0.6286578 0.73909694 -1.5023082 0.95967853 -0.20239693 1.3332319 0.28080192 0.29502663
-1.7203214 0.4090162 -1.6320978 -0.72024107 -0.27329347 0.8796444 0.90797895 1.3731102 -1.027198 -0.32637593
-0.22847538 -0.3254047 2.0998852 -1.3969778 -0.36529332 -0.55381256 0.2725972 0.6344207 2.4991634 1.4965445
2.0032024 -0.5209513 -0.3643276 0.52125627 -0.90149194 0.6235751 0.1256374 0.3991626 -1.4256984 -0.009192037
2.0482237 -1.4900988 -0.48263898 1.1142923 -0.93036574 1.1355621 0.7882667 -0.84557253 1.7673674 0.14606643
1.5824084 1.6222852 0.2556587 -0.07323435 -1.2872361 -0.14443442 0.20241106 1.3309599 0.99514484 -0.1235038
0.12086881 1.155101 0.74288064 -0.48034748 0.6081374 0.876807 0.69735277 0.1254362 1.9792876 1.4855734
-1.9783013 -2.3391645 -0.77474236 -0.13110694 -0.50406235 -1.8044776 0.06618559 -0.3780747 1.5640122 0.53759176
0.018292345 -1.1748168 -0.4175448 -0.36516148 -0.7603319 1.3319615 -0.7137928 0.38504595 -0.3701288 -0.6067138
1.206038 -1.8194036 -1.0473356 0.6189959 -8.198677 -0.6175733 7.1327405 -0.25433457 -0.097931586 -1.197048
0.7068985 0.09746634 0.41223294 0.38741273 -17.08582 2.0003572 18.474728 2.040944 0.49493966 -0.22228354
-0.9338225 -2.2573373 -2.0925632 -0.14082354 -20.372822 -1.5603884 22.291172 1.0034784 -0.6630526 -1.061335
1.1342974 -0.38619834 -0.15367465 -0.9410945 -5.7280574 0.10461211 8.293714 -0.39474845 -0.19585022 -0.9349476
-0.0013998002 0.2863917 -0.041789208 -1.3638582 -3.4074614 0.10126203 4.7306256 -0.31312218 -0.02980557 -2.0680861
4.831065 0.08660103 0.031309843 -2.2662048 -11.785219 -0.977111 9.844964 -1.4545543 -1.8764246 -0.60205805
13.166161 1.6600928 -1.2856398 -0.25010854 -23.835058 -0.64774233 19.637232 -5.189201 -0.25479957 -3.2846014
5.6171827 1.0984437 -1.4657869 -1.2303399 -9.673732 -1.2516816 8.787061 -0.54030484 -4.122946 -1.1530975
0.053869274 -0.17386624 -0.9407762 0.2282441 0.15105712 1.1369979 -2.4010904 -0.46919504 -0.31966788 0.74957967
4.1172934 3.5145552 7.8464723 0.11698158 -16.188644 0.34453323 2.1096454 -0.11146693 -0.65667236 -3.3883533
10.825401 1.1586707 7.7324505 1.7502208 -15.865807 -0.101718344 4.0995803 0.71705204 -1.8182424 -5.8782883
5.7721767 0.5932059 -2.0286005 1.5363307 -3.092855 0.3627108 3.0224764 0.38920337 0.9789717 -3.2039573
1.3585598 1.1418122 -3.1286151 0.2935185 -0.35386798 -0.19667797 4.926237 1.4968108 -0.5257111 -0.075648114
-0.5563642 0.85224205 -2.04143 -0.861737 -3.743014 -0.14108784 5.920549 1.4066321 -0.72441685 1.5351163
2.1579533 0.68230456 0.88718253 -0.13950537 -3.6669328 -0.09136974 4.4797177 1.6742436 -2.7899673 -0.31500244
-1.539837 -1.0355495 -1.0519772 1.6692749 -5.4945407 0.10140116 5.5406656 -0.08853609 -0.4267056 -0.59842175
0.55348176 -0.87323266 -2.6383119 0.5827439 -8.619021 -1.4544613 7.633007 -0.36324337 -0.69921935 0.37896702
1.2349204 -1.828733 2.0296273 0.41676897 -5.430288 0.3017257 5.9242945 -0.97455496 -0.60539055 0.013219566
0.4499433 -1.2150966 -0.010568584 -0.26267374 -1.2260858 -0.10331433 -0.7447437 -2.1600175 -0.75099856 -0.51444674
0.21932203 0.184564 -0.6048025 -0.024577612 1.1185368 -0.14433603 -0.014086698 0.1930298 -0.660077 -3.6735923
0.28044268 0.02526524 2.378291 0.4176675 -0.01584305 1.6644069 -1.0323986 -0.9976333 0.67257303 2.4363575
1.0717627 0.0326296 0.37419683 1.1018214 -0.52147096 0.020201277 -1.3593172 0.8946216 1.4549485 1.263803
-1.040184 -1.6237057 0.22841612 -1.7806467 -2.3745232 0.28051767 -0.32398742 0.85339355 0.4132313 0.5878388
1.2796998 -0.8005637 -0.7571309 0.6053571 0.8741559 -0.73496056 0.15911159 -1.0845782 -0.038907874 -0.6603821
1.5210471 0.12194274 0.8853675 0.27548617 -0.25836253 1.6481975 -1.1572591 0.8128388 1.2238318 -1.022223
-0.16266304 1.0314138 1.3807334 0.13308175 -1.4907408 -0.7509165 -0.5144226 -0.38667223 -0.09264763 1.1828526
1.1115379 0.065638684 0.3192176 0.4894432 0.18984395 0.52267665 0.26798412 -0.8992039 -0.51100016 -0.42345953
-0.62842053 -1.8771995 -0.29730225 1.2345035 0.44404602 1.4194984 -0.47889686 1.3489946 -0.41013467 0.46048176
-5.491943 -0.8925149 1.9381751 -2.591906 -7.2310176 -0.58276147 15.096444 -0.095833555 0.25180483 0.9801704
-6.691364 -0.3066586 -0.49537897 -1.2605929 -24.342577 1.6663448 34.96895 -0.45976374 1.1643023 1.307913
-3.1088295 -4.0915017 5.839025 -1.9710345 -32.861927 1.2259756 35.230484 1.2810065 -0.7711739 -0.6912568
-1.3892195 -9.835227 20.037504 -1.6488632 -23.49346 0.7064858 18.037264 0.6609168 -3.6057386 0.12089068
-0.9889455 -5.7009945 8.946458 2.1641681 -32.61212 -4.7309685 40.319427 -0.84185266 -2.2559915 0.13804628
-2.1810727 -10.513875 18.777954 9.093243 -30.494461 -14.992718 39.710613 -4.0500097 -7.203952 -1.7882549
-2.1024392 -0.08570137 13.035252 12.079787 -50.24421 -12.133943 54.45249 -5.5629845 -7.702547 -3.436432
-4.8725004 25.434324 -5.8933873 4.416407 -32.103683 -6.641026 37.08029 -0.2117446 -9.629409 -4.1938043
-15.530337 23.170519 1.4739978 -0.7363091 -15.550616 -6.834424 31.48432 -0.81803787 -11.087809 -4.1713066
-20.552658 40.71928 12.096316 -7.005153 -27.384731 -0.7655542 15.307645 -3.423896 -8.803616 -3.8435576
-10.053721 32.274754 3.885077 -4.545056 -33.720474 6.6456766 22.58169 -0.5779149 -11.029524 -4.4531755
-13.518137 17.06872 -14.837115 -9.88006 -17.094172 16.777546 33.94546 1.8374224 -12.033776 -4.737294
-6.841833 -0.3325882 -11.893 -11.120008 -15.138921 11.826284 38.53174 -0.8627298 -3.7395108 -2.4836123
-3.4270651 8.627853 -16.416555 -4.720759 -10.462692 -3.7315044 36.162098 2.143699 -7.9146256 -3.081442
-4.9293694 1.0281758 -4.7752113 1.2748846 -8.11999 -13.383292 29.957348 0.385919 -1.4922626 -1.5632901
-3.2334442 -1.1481522 -0.3632711 -1.0100348 -9.478716 -13.678062 29.562883 0.33807242 -2.0023892 -1.4237729
-0.7407356 -2.4812121 -2.1766386 -0.94791454 -13.748477 -4.313894 26.339434 0.46199518 -0.33986264 -0.66709363
1.037998 -0.08279941 -1.1697774 0.4332239 -8.606962 -4.5957193 14.875482 -0.27790692 1.1297036 0.7007233
-0.3239784 0.3949014 2.203278 -0.11855296 -0.7831919 -0.6018359 -2.5752964 0.67252153 -1.6809164 -0.62828845
-1.4629719 1.001513 2.565623 -0.589523 -0.6053087 -0.7379647 -2.1252887 1.2751184 -1.2925358 0.3732579
-0.29812825 0.707854 -1.9263986 -0.47116634 -0.6950466 -1.0694094 0.48634222 1.2046357 -0.26299888 -0.11135755
0.23056616 -1.8033354 0.9506047 -0.027497206 1.0726064 -0.48583418 0.13547996 2.1501305 -0.8864196 -0.9856807
0.3064416 0.38078332 -0.53899795 1.6907669 -0.68756783 -0.21764366 -1.6469114 -2.1251562 -0.72345394 -1.2775326
0.48179796 -2.1080635 -0.8743759 0.62403846 0.41353112 -0.06758071 0.50297284 0.91825527 -0.45410523 -0.47713125
0.41926733 -0.5179312 -0.6602493 -1.5038757 1.1866535 0.07189472 -0.59019697 0.12797694 0.6395764 -1.6063775
4.902465 -1.3228451 -0.24108842 2.010899 -1.9458505 -0.23183638 0.36906004 0.03453687 -2.3862627 -0.44657618
-0.2652058 -0.40147695 -1.873835 -1.3267616 -1.4309939 1.6438401 -3.053801 -0.45591614 -1.0130987 0.7917782
-10.109649 -0.7379678 0.47739118 17.271357 0.91025615 -7.5279217 1.7639939 -0.104967915 0.32219908 0.44802558
-16.260357 1.4804688 0.6200785 12.222301 -17.298632 -4.3182907 24.99999 0.27076867 -3.3611546 1.0491709
-18.82628 -1.673647 12.967874 15.727461 -23.591927 -5.5886974 26.8334 -2.124217 -5.3007703 0.9110364
-3.9933429 -9.471305 21.590612 22.919134 -40.426235 -5.2319202 26.385231 -5.3415194 -3.4964938 -1.5836701
-5.485685 -12.39239 51.089077 4.475598 -49.858505 -6.5622196 28.373734 -6.037452 -3.184485 -2.9683983
-1.5668188 -18.422947 36.90776 13.835977 -38.621128 1.7554835 32.130394 -13.83373 -4.7613454 -6.8981085
5.189575 -37.067535 50.17682 54.867836 -48.291275 -10.514905 34.839394 -20.373632 -19.57151 -7.7488146
3.8041768 -3.5640128 36.717182 67.53674 -80.93459 0.096179545 20.83888 -16.949419 -20.960201 -12.783462
29.368885 8.361329 57.21154 21.90544 -105.01311 -3.3572726 44.934162 -14.401952 -19.402563 -22.048687
31.546371 -4.6984873 24.836092 61.511417 -73.490105 2.0276246 35.573166 -19.289412 -37.251236 -25.682062
22.519966 19.586567 11.495148 48.709923 -65.28852 15.534138 17.40539 -13.725289 -29.460947 -26.980474
17.159216 22.10152 25.090939 43.32241 -57.747265 0.74997246 -1.8752398 -8.02938 -16.174366 -27.1165
2.8207006 -3.187766 19.827045 31.63569 -41.590893 9.798879 5.556757 -4.194815 -8.60736 -14.137291
-12.691608 -19.255512 -30.125175 44.25688 -35.519653 22.650692 28.679098 -5.078016 8.712021 -4.0364203
-14.69437 -11.676277 -20.725122 44.786167 -16.909786 23.203423 21.315077 -0.65143585 -13.535754 -6.813083
-8.88485 -21.824574 -27.340084 48.9281 -6.6296363 30.218557 -3.400406 -2.1847897 -7.6676087 -5.5115333
-17.931812 -16.259829 -13.882556 -12.045137 -9.033506 35.44308 25.029335 -3.042516 14.012317 -3.373258
-11.645987 -20.809647 -13.104031 -25.177858 -2.0065553 16.121332 36.220627 -1.0478141 20.623026 0.7387596
-4.359822 -14.628673 -14.486284 -16.14992 2.5986114 -9.392652 34.16497 0.7187652 20.661497 0.5407349
-5.0769486 -12.777719 -1.842409 -4.0752974 -1.2658834 1.454817 13.713103 -1.7468096 7.886449 -0.7988589
-0.8621759 -3.608923 -0.55649495 1.6152084 -1.4981105 9.658661 -7.933703 -0.030306965 1.081398 -0.34906343
-0.49295437 -3.4594367 0.7061778 -0.29196382 2.814464 0.70714504 4.2026505 0.0786305 0.054185152 1.1626756
0.8637061 -0.16699426 -0.07889281 -0.03470965 1.12838 2.029964 0.75001484 -0.7073374 -0.3247508 1.6477062
0.07102537 -1.0201877 0.14319852 -0.6864054 0.30123672 -1.9836179 -1.6727467 0.8366311 -1.2972654 0.49253586
1.4003985 0.8599364 0.95718366 0.12796672 1.09351 0.051781554 0.46363157 0.25042757 -0.5437336 -1.4149802
0.7021564 -0.77087015 -0.53890425 -0.9304153 0.1437774 0.5580786 0.9872296 0.03144901 0.16127104 1.3174489
0.3837819 -0.7092268 1.4914609 2.022802 -1.135684 -0.7702394 -0.6479332 0.28624058 -0.34020582 0.2610253
-0.49314833 -0.30207258 -2.1272907 9.43398 2.3372967 -8.040594 -0.34670705 0.24760237 -0.20690012 0.0011390208
-13.034377 7.686011 0.578225 39.572567 -0.18437938 -30.331545 4.0257716 -6.047344 -4.2439594 -0.5183247
-15.955318 10.188248 26.469336 36.1197 -10.8087015 -29.465935 7.2257295 -6.640764 -7.433519 -1.1334164
0.62332094 -1.8636177 16.826548 35.126743 -13.192182 -19.025572 -2.8317847 -9.122386 -4.5692143 -3.9639003
4.946405 7.5781875 20.822533 52.53143 -40.528862 -47.886322 12.227232 -10.757578 10.412174 -11.837557
22.730778 9.886791 52.89467 34.09581 -51.169655 -47.270424 3.8206382 -25.868599 21.15816 -19.02041
5.171685 12.7404785 40.386726 38.259254 -59.08816 -6.9633327 1.4159628 -37.277256 22.348053 -14.414747
25.079525 -21.790503 37.934093 50.8948 -55.41936 21.512009 -13.102757 -40.840103 20.639473 -23.979649
-7.4399624 -13.0853 52.44603 30.673649 -42.064274 4.630389 -12.735199 -27.448086 48.015347 -32.929623
0.37411478 31.642551 20.655872 41.579235 -17.375692 -29.800077 -1.4811139 -28.6248 13.019634 -32.238575
-9.662079 18.741795 52.560795 28.936153 -40.174305 -9.647459 -6.579487 -45.35876 55.21741 -46.293797
6.3514543 2.3245535 29.717066 23.546398 -55.224407 44.090057 -9.737226 -34.765495 35.649696 -43.619347
-2.4092107 22.86346 12.610408 34.54558 -15.4919815 7.535364 3.9342647 -28.615578 29.617373 -59.61802
22.290195 -1.5731847 4.990759 13.823151 -4.819513 17.474884 13.209284 -23.4837 5.208783 -44.50339
0.49911112 -22.899607 -8.964143 36.038715 -10.964645 54.8884 2.4132378 -17.482056 1.6455057 -35.980373
-6.0984755 16.06467 -31.422443 17.092636 23.193945 24.19098 -5.9862547 -10.396233 15.345746 -42.324543
1.1303904 7.2378707 -17.33809 -1.1914375 36.054253 -32.283142 12.753752 -7.038099 33.60642 -28.50824
-8.970462 1.2496972 -37.02532 -21.416935 33.284782 12.998917 30.643284 2.5127225 13.350912 -26.993305
-3.097507 -14.493789 -45.61278 -13.128892 41.164215 7.383593 32.891907 -3.5037913 8.813939 -11.932897
-13.312644 -18.678865 -40.797607 -39.09738 39.50907 43.366547 30.859642 -1.8004416 1.3464686 -3.4616752
-26.311481 -36.7026 -23.55929 -8.361565 25.161833 51.271732 -13.338436 -0.27388328 23.992804 -1.4991517
-7.7423787 -19.387794 0.7624402 -2.2948866 1.0774493 17.099009 -9.252593 1.774172 16.653759 -1.4975173
0.2845485 -3.1474662 -0.61404604 1.114253 -4.93195 6.939376 -3.7800863 1.0198324 5.3297606 -0.114106014
-0.27036923 -2.1485434 -0.7573717 -0.68931943 -1.278658 1.0400803 3.3734546 -0.14007962 1.373433 1.5820274
0.0779057 0.34558675 -1.6972617 2.2010705 -0.9805301 -0.23649865 -0.7997425 -0.1838742 0.23770078 -0.10616172
-0.2518163 1.627845 -1.8445605 -0.28185755 0.0012005141 -0.23979083 0.39229718 0.27049133 -1.3614646 -1.8555151
0.12780912 0.7251365 0.28080273 0.13314928 -0.46484077 -0.7223806 -1.1710242 -1.8479463 0.67407024 -0.643256
-0.8982698 -0.38396317 -1.407158 16.152365 1.3818817 -4.5747633 -5.9845986 -0.58468986 -1.2736452 -1.8617591
-0.9747489 3.9486883 -1.1591154 39.57869 -0.95013714 -33.105618 3.482009 -2.1114492 -5.6567082 -1.955334
-18.555561 22.510864 -8.855815 63.03558 0.16798475 -40.468754 -18.104385 15.918662 -13.932526 -4.480144
1.5142939 13.698883 1.6364938 54.311543 -16.075598 -43.829716 -8.631999 19.906199 -12.909102 -10.660165
1.5211372 -11.381187 13.091486 37.364204 -20.293991 -11.771291 -16.601545 25.079771 3.6515718 -18.356323
10.642161 -26.486477 22.47119 14.176042 -8.984069 -21.132086 0.25460738 42.310944 2.004438 -26.904333
9.712241 -28.284834 1.1172514 19.858463 1.1115364 3.9021912 4.326584 26.425379 -1.2845801 -33.987644
30.221912 -19.670975 15.125656 17.856497 -20.73657 14.019552 11.044052 -7.336761 -34.571613 -5.5230627
18.037151 -28.83924 33.59513 1.4720118 -22.34576 7.208539 -55.192963 -19.715378 24.046385 44.586906
-13.0303955 -26.613329 16.47905 -4.1720963 12.540043 -1.5546997 -39.644867 3.3702254 32.77544 24.357523
19.059805 -6.675391 3.2219515 15.827326 -44.293835 -2.9309776 -44.68011 6.1549835 19.215813 36.337822
17.539696 0.36340076 19.322649 5.3174033 -5.370695 -19.141863 2.7375169 -22.880074 21.460432 -15.916545
3.146164 25.049698 7.470932 13.184787 0.5630789 -16.832996 -30.930525 -29.575659 18.539038 5.756343
6.45224 -13.057495 37.90778 33.06987 9.246009 2.460939 -30.8177 -8.283509 18.861883 -54.64224
31.665377 -26.576529 11.751649 -11.764158 -5.858674 22.35643 -0.32060283 -13.956868 42.35727 -50.481705
32.28586 -12.001247 10.291816 0.37364256 19.88263 9.292243 16.181303 -22.017744 -18.16972 -34.315483
5.7386136 -5.3242345 -10.252655 21.223526 29.039862 -3.7278323 28.276098 -44.9692 13.355314 -32.13333
-17.022675 10.922922 13.904675 2.9808168 10.895504 40.170403 13.533128 -51.846832 16.2631 -41.26415
4.653705 20.308842 15.369668 -17.3076 4.925248 20.226765 30.187273 -25.374233 -3.6701574 -52.352024
7.91923 16.72701 -7.338417 -13.464493 33.83015 44.274933 -4.2163706 -15.372066 -3.560739 -60.25556
-22.916199 -3.7388296 -18.85409 -40.93981 51.85055 62.433372 48.837425 -8.064639 -27.127281 -39.8986
-30.35022 -8.714196 -30.192865 -19.223516 -2.4416099 74.97126 26.26988 -0.44471988 9.356435 -17.253155
-12.018487 -25.747751 -6.4786763 -3.908166 -9.752789 43.861137 5.0593452 -1.4547632 22.649979 -6.598635
-2.0357888 -8.51476 -2.305615 1.6142285 -5.06364 8.103124 5.3366957 1.141421 4.9220653 -1.1661729
-0.46189407 -2.5916398 -1.76084 -0.5096151 -0.7368129 0.5047019 5.894457 -0.45695683 -1.2133583 2.2217758
1.2393302 -0.6912095 -0.5125929 1.1284486 0.86587274 -2.20203 -0.518075 2.5840495 0.95695084 -1.3297682
1.2946208 -0.07082881 -0.003566348 -1.2563813 0.41013315 -0.14593208 0.7368019 0.8809214 1.1846641 0.8647919
-1.7042816 -1.5787715 -2.5617754 2.0888147 -0.12026632 -0.560133 1.6991317 3.041812 -1.9199318 -0.43731272
0.071027905 3.1706498 -2.447531 13.098142 -4.527842 -17.852146 -3.3034203 24.55886 -8.377401 -5.6963344
-3.6902568 7.265339 17.827976 17.76935 3.58414 -30.704247 3.9348288 15.60872 -13.207904 -14.073501
1.7775724 1.4576544 1.8760011 24.815569 21.64132 -24.42809 -13.242331 33.25976 -11.143081 -41.256245
8.230051 -4.1570964 30.47035 27.609333 8.713556 -19.71363 -33.9532 48.642773 -27.700537 -39.690388
6.353538 -20.709452 16.814093 16.84062 -0.8291633 6.957619 -7.320414 45.2954 -17.847078 -47.126923
0.768625 -21.87647 10.128672 10.492323 -7.57885 -0.0055879354 -7.3819284 48.48939 -5.822654 -22.336292
-33.60808 -46.375317 29.957493 33.25041 21.216806 -21.254742 -12.934226 28.570496 1.8303344 3.4601502
-4.4774594 -8.373551 37.992012 44.223934 -28.13032 -0.376562 -44.85254 42.826405 -30.900843 -9.924848
-5.1224365 10.180251 -4.151204 25.597858 -46.98647 -23.650084 -38.259598 67.40648 -3.4567041 22.623198
-32.993176 -16.782143 5.579935 -12.997932 -22.10213 -6.542082 -23.4855 39.684196 47.13654 18.930393
39.24013 -36.4628 -8.830398 47.261753 -45.03387 -4.472724 -51.757275 1.7460694 -1.6996877 60.370655
25.865648 -12.174781 -19.946468 10.181234 -55.4251 23.661982 -31.39218 -1.2947938 8.419564 51.788
-3.8331575 -16.79782 18.98453 11.984883 -47.239574 -17.423225 -25.218937 8.782213 47.35305 26.207783
17.979462 -27.650822 17.819633 22.444008 -57.641502 -23.491177 -30.657623 1.9719434 10.051208 65.00344
18.774736 -49.7406 -7.1668277 -12.541763 -23.67625 4.5110483 -21.936539 8.798305 22.817612 58.41556
32.389027 -9.87809 1.6850482 40.961227 -45.13464 6.2036476 -60.26825 12.758564 -29.25731 48.006893
-3.1357994 -23.779804 -15.54963 -26.78521 -6.570612 48.186653 -18.59699 -2.9575717 50.122963 1.7643039
14.466098 -3.36079 -17.453035 7.040989 -28.184313 22.009565 -4.9038944 -7.981011 -3.5932195 22.382736
36.86162 4.6175685 -3.2598128 7.647967 -18.806837 -14.2219925 -3.4241526 -2.507316 -1.5636926 -10.425441
48.394485 4.425888 -26.979279 -2.3570943 25.923801 27.006079 -5.533418 -11.584724 -12.9404545 -48.23826
5.9454646 5.1014495 -53.928085 -23.11755 57.737907 31.522923 26.662184 -22.038582 26.591324 -52.123875
-39.256275 2.5850859 -31.366524 -17.039536 4.420514 113.78523 25.412361 -9.293398 -9.172333 -37.03041
-30.808113 -13.244719 -8.56653 -10.343301 -5.872727 61.704693 5.6180086 -3.6165164 21.440548 -13.021258
-11.977459 -3.6064148 -0.45481518 -0.15950502 10.711671 16.211836 -5.595169 -3.0104308 0.59374845 -4.191431
-2.7516546 0.48798835 0.929409 0.6573963 -2.0964828 5.654486 -0.4150957 0.48102063 -0.12939411 -1.3981444
0.07575001 -1.153791 -1.0151038 -0.30685765 -0.65763646 -0.9691569 -0.7726501 1.4730407 -0.14717588 -0.47367463
-0.89243054 -1.454138 -0.64139897 1.7593154 1.7627089 -0.775155 0.30530268 -0.14977089 0.03952106 -0.5112437
0.16073452 -9.187801 4.4007077 -2.7426987 -0.578098 -0.8016745 1.8101747 11.537502 -3.4106333 -0.8178775
-1.5834438 -0.55605793 8.379682 -2.0333693 -1.455324 -18.72693 -3.1405034 38.194668 -8.546607 -11.177653
-7.597009 4.9698687 43.99477 23.776535 15.530797 -60.614502 3.6241019 18.133476 -6.254812 -37.02624
7.1354294 -12.607466 15.384508 56.263027 51.488842 -36.32597 -3.0284543 -5.99668 -5.7977095 -63.49993
19.598541 -19.052616 34.312523 29.156515 18.747614 -9.218823 -37.925014 31.361113 -23.605343 -43.426254
1.6616127 -15.853861 -20.036469 4.021362 22.081873 18.091208 5.663058 38.848972 -10.340854 -44.058754
-27.810083 -47.509876 25.181555 -4.6041584 4.94143 23.118958 -4.550499 5.726555 31.90826 -7.384307
6.233087 -21.152185 -6.5615234 -1.4213498 14.374757 10.936905 -18.455498 29.138376 -7.2193694 -3.7066283
16.15633 16.81887 -18.226599 -11.742224 -23.515726 27.173584 -38.401455 32.773693 9.177209 -7.6628656
13.008342 -12.932332 14.065262 -11.022951 -13.412975 13.658577 -22.913763 26.996677 -17.517485 11.169243
5.7091627 15.856574 -10.5366335 24.473 -59.59742 12.987323 -22.64405 22.207344 -44.338276 53.916744
21.507986 -41.7772 35.187183 -9.410964 -38.110348 -29.071072 -34.50014 29.933836 -1.6930109 68.20979
6.452941 3.890937 -5.4949627 47.473827 -57.173847 28.275015 -11.044087 -23.815638 -47.52512 58.406372
-13.274276 -36.902405 -20.073608 25.020947 -30.682886 -30.821688 -17.749744 9.64224 55.594448 61.59546
-11.154446 -18.66479 -1.1371828 7.06158 -62.89029 14.433186 -40.318214 17.360268 10.91545 82.88501
27.877909 -24.464577 -25.463863 14.616375 3.2268925 12.020882 -36.47923 26.418262 -32.716805 42.992867
34.946266 -30.198637 -11.253762 -21.804247 -44.06184 19.391394 -40.79759 40.3292 26.376276 29.408278
7.8294215 -2.6968842 -13.058857 11.770666 -5.7124543 12.3272085 -31.341072 13.242408 -11.967968 15.864343
-3.64894 15.843153 -38.936794 2.9582205 -15.017381 16.834831 -39.545124 45.997353 -13.193831 28.828981
-8.437227 -3.162409 -5.9093013 -37.42284 -6.4348073 27.305277 -24.966795 26.65096 24.752747 7.354594
-3.3796508 -9.884674 26.591516 -35.96115 18.787855 40.76185 -24.412138 13.310795 -3.657145 -24.517387
32.14734 -12.581998 -71.02748 -34.493893 47.769234 43.568085 -2.7046494 -1.2870932 32.60151 -30.231674
4.8658886 -43.833965 -57.127735 -29.195555 17.31848 84.1985 23.30101 -0.028475642 41.316868 -38.39235
-34.279198 -25.478586 -11.403004 -10.880034 0.20204604 121.37383 -11.733473 -4.44223 -3.8311043 -18.332163
-18.892977 -1.762047 -4.649182 -0.4872228 14.52693 27.731724 -6.567802 -0.93740654 -4.1326647 -6.2473493
-0.02425018 0.14885467 1.7982881 0.30040944 -1.5432854 4.101034 -1.4989479 0.70836645 -0.29388052 -0.21569772
3.0597005 -2.6624355 0.12102423 0.9558991 0.9081352 0.20456024 -0.05920582 -1.3804371 0.56193703 -1.8224584
-0.61241543 -1.2130919 -0.37395984 -0.6700389 -1.1970098 0.053661816 2.1337633 7.4545856 -1.255905 -5.5485654
0.47018427 -5.53869 2.4178495 -0.09779661 3.3152962 -1.8744106 0.47834498 10.209907 -0.4090215 -4.091673
3.20734 -0.2561224 4.274961 4.392081 0.80799025 -24.032597 -4.8359604 48.406456 0.6851338 -35.783897
-13.49813 -0.5272448 46.09951 36.62432 12.493537 -86.43253 9.398958 39.551586 6.0028787 -49.531784
-3.7544553 -6.5633383 6.9925256 19.720196 31.512402 -46.875916 -2.2628531 21.306208 19.426329 -39.318928
-2.911717 -18.83519 -13.930805 -0.5011262 7.1463876 -12.488222 -24.079657 35.198795 34.784092 -4.873405
-11.891852 -3.8874085 -2.3075926 3.6849566 23.768223 -31.209402 -16.010973 67.9995 22.84707 -59.537292
-10.031345 -34.8546 15.034911 -9.288264 -9.07706 10.170146 -22.18749 29.829952 -7.004844 33.41143
36.30817 -38.179 -12.936212 -14.540155 10.685201 10.258484 -12.5059395 26.482468 19.15141 -27.751848
-3.752318 -3.6281915 30.793428 12.708933 -19.293524 12.252384 -24.795286 0.52714944 13.278223 -15.363528
-4.929602 -28.295017 8.171487 3.1833756 -2.7679513 10.671475 -15.036364 48.211006 -7.399101 -12.603447
24.034657 15.296118 -9.22533 6.213018 -27.296413 -7.244117 -32.175255 48.00474 45.058292 -62.688557
-7.428319 3.4127808 -16.128977 23.348658 -39.35562 -0.030266523 -24.017912 0.94234604 31.484365 27.41534
30.92201 8.975937 -15.727947 25.922709 -57.098045 -5.121105 -45.29895 31.126007 -34.14321 62.923344
26.243977 -3.5677726 -1.858016 17.69489 -31.182026 -14.840179 -58.520847 49.115444 -22.120363 36.99315
60.771088 -33.466454 -6.6622105 14.756907 -71.43036 -0.7308322 -47.884007 21.864754 29.471933 32.021183
21.281807 4.7002225 9.347684 6.7049265 -29.072498 -0.25970244 -21.104633 21.76034 -18.019485 4.323514
14.039257 -17.380348 -33.507633 41.392876 -12.51787 -16.29163 -64.67815 63.86047 13.241785 11.594233
-14.897422 -1.9413071 24.677858 16.123495 -13.374978 8.005539 -52.588875 0.5815719 36.484264 -3.5267196
26.21847 -20.581419 8.135574 13.906256 -9.018378 27.928637 -37.459217 28.000334 -2.1940074 -36.84478
10.519692 -26.369862 -26.459543 4.6836395 2.9305701 13.10663 -29.532503 -10.706711 19.496662 38.447247
20.840054 -25.370218 -14.837594 49.02545 -24.604445 -5.2603054 -52.533756 27.231836 31.502785 -7.66789
50.741344 -49.43375 1.9388263 -79.69939 23.61221 74.891 -38.52536 12.319241 41.6716 -33.975315
24.796543 -56.05507 -58.8788 -56.6661 11.019384 137.38005 -28.392784 -20.388313 68.78024 -19.830898
-39.408154 -24.489454 -21.147652 -12.633628 20.41427 115.428276 -27.885273 -18.630754 23.055056 -19.80162
-14.300345 -1.066405 -2.6518688 -0.31203365 -9.556335 38.24977 -18.607815 -1.3147881 19.548223 -6.6369143
-2.1225264 -1.6768963 -1.0846568 -1.1977904 -2.305436 1.5050272 -2.863381 -1.2036673 2.6634781 -0.969045
-0.26217854 -1.3764961 0.46139506 -0.13390514 -2.190649 -1.6580743 0.17719878 -0.12970719 -0.77746373 -0.48899797
0.60077006 1.9374813 0.36160403 -1.0193397 -2.229257 -0.09620289 0.05386381 8.289444 1.1958625 -6.0573463
2.3749812 -3.3062153 -6.6489472 12.251075 1.545968 -2.597506 -0.7629482 14.528047 -3.0436125 -12.400529
9.689445 -1.7386672 2.3311267 31.139795 -15.816672 -30.271471 -4.6033998 50.48222 -4.634403 -36.505928
-3.9168615 -10.649686 32.839382 81.71953 -30.92258 -76.18023 15.951581 47.105747 5.368518 -59.96887
-5.9663954 -30.808224 51.817215 25.010979 -17.369247 -49.45867 -25.2769 33.61445 26.36837 -10.91408
-11.039175 -24.3349 -27.404217 7.9709396 -10.119088 -8.784781 -26.338903 34.991875 39.28505 30.349167
-30.76924 3.25302 -8.948271 16.635887 3.1005154 -5.007228 4.375642 26.797457 12.407549 -20.226742
-12.638864 -9.334437 -4.9371643 14.499032 -5.040269 15.114049 -23.40038 13.099306 13.574723 -5.877622
10.417377 -38.748905 16.33216 15.584444 -7.6881466 -22.425894 -31.478369 41.27817 22.639496 -9.21925
19.65444 -15.732996 24.591774 -9.860425 -40.948944 12.157218 -36.996693 -12.268342 22.004202 32.152058
0.48320064 -19.786243 -26.477875 -47.027554 -6.2592835 49.41243 5.1011243 17.241444 14.367373 16.912815
7.82241 -5.6549473 -13.048453 -27.848526 -3.4064608 37.868023 -35.50427 53.580963 -19.539291 6.7334266
49.768917 6.175467 -0.32478383 -15.882107 -21.500967 -6.4931126 -45.74915 24.428886 1.7163484 9.178514
8.877212 4.331375 0.9536952 24.392418 -65.804855 -28.240122 -14.214639 67.8112 -36.409477 34.020283
-39.331913 51.069885 33.00738 54.599117 -40.64334 -50.942123 -38.02978 35.542046 -67.282 59.804245
16.414555 18.157845 24.975163 36.917213 0.1718635 -52.126995 -62.653336 29.028414 -4.997075 -5.6772747
27.868649 -3.5468743 -14.291057 13.859122 -10.226881 -22.482399 -72.888664 78.91821 9.703306 -9.795099
31.405226 -3.1241977 -1.4689229 -4.7960935 7.524755 -1.5340539 -71.26795 28.903488 0.39719617 11.1015835
29.606373 -8.6183815 -8.298192 31.18916 -15.758961 -8.57515 -64.23024 43.259956 3.949215 0.11125067
27.586924 -30.10744 -8.143204 18.0583 15.3301735 -7.9831133 -38.920017 -5.439875 23.506723 5.9244
-21.017181 -27.413076 -38.44359 13.273698 6.56092 44.26748 -9.815922 33.923424 31.956871 -34.1381
-20.71215 -33.224606 2.3171613 48.71878 2.2912345 37.018322 -60.560806 23.883047 10.599367 -13.413732
64.601906 -45.116203 -5.673401 -31.761436 14.088305 54.598377 -37.451244 -5.004977 37.051945 -43.95774
71.63291 -25.216213 -65.91487 -55.064034 -30.698343 151.23976 -30.942398 -14.591171 26.556501 -26.051462
-34.17288 -15.072422 -17.043818 -10.379101 -21.635315 147.70091 -45.694515 -3.578794 16.986227 -19.849873
-13.492982 -0.89878565 0.027911216 -4.643621 -11.092169 26.818235 -19.80881 5.7745166 26.671062 -6.0939846
-0.5884905 1.1601807 -0.2138679 0.27455822 2.0433583 -0.3880338 -0.27692083 9.550224 -8.469945 -2.1546032
-0.34700948 0.5202375 1.5242608 0.24130075 -1.3128734 1.8709806 1.1674535 1.3715236 0.09032243 -1.0480658
-0.912608 0.58152044 -0.25658402 0.07030213 -3.206227 1.0608844 -2.4231765 7.6987967 1.0991651 -6.024044
5.696425 -2.887356 -3.5965953 2.3882098 -6.7819357 -0.40738422 -4.130196 30.740437 -2.285932 -18.509647
6.3874717 -7.8057113 14.317936 41.01068 -11.538394 -28.847982 -8.0211935 40.663754 -16.562248 -31.175821
7.359366 -14.567877 -7.8683677 36.883583 -26.218758 -29.995146 -6.478786 51.10872 31.474174 -39.65694
19.850203 -32.95288 51.534386 -8.753177 -31.504576 -27.52903 -31.715748 34.728733 7.2874126 19.144018
-6.9052205 -51.12869 52.780525 -7.796388 -22.50972 -19.437819 -17.493183 26.543432 19.200462 30.125511
-23.529854 -26.191647 4.336579 -0.8088381 -16.055449 21.233551 9.104387 8.315336 27.053537 -3.7136955
-5.0867395 -9.335458 -7.0740924 -27.8118 -13.670954 47.61723 -3.9499176 -9.854072 19.691704 11.104493
15.379916 -27.837431 -30.288456 -62.330544 14.272499 54.18396 -28.90931 19.636616 28.599499 14.195967
-9.535633 -3.613913 17.31158 -41.665966 -5.949626 23.892496 -6.855582 -1.8422811 32.582226 -0.34688878
24.040905 14.447637 13.059429 -52.208645 -0.47128278 13.130822 -11.823925 -31.854193 28.114594 5.2930975
-17.984406 -11.202107 18.186726 -56.883633 23.394943 48.71128 -25.56425 -25.38294 44.050632 2.9413352
22.775682 39.937614 -5.943967 14.584048 -37.529648 1.9047972 -14.285992 31.07884 -12.224962 -37.987858
24.899223 25.263441 15.186198 23.990622 -109.080574 6.2680607 -29.55623 50.65051 -13.402935 4.9650736
-18.737099 74.4859 -7.530812 15.848246 8.643501 -9.89851 -44.394966 53.816734 -48.365807 -23.386307
11.737411 19.816877 4.508996 31.086382 -25.94062 -19.41828 -45.69674 87.24345 -57.500164 -6.767812
50.407185 9.1096525 37.96021 23.853842 -2.910711 -46.915554 -43.369606 20.956158 -35.32451 -17.71691
31.797867 -18.97974 4.873862 24.009588 1.5415336 -64.743546 -57.921074 43.84323 36.755264 -2.601515
-14.579339 -7.9035807 -19.185152 23.127232 24.425566 -58.442627 -56.33919 46.72833 52.754536 3.5593843
10.546436 -38.953705 -1.2393639 31.679636 -13.627729 -41.592102 -19.323755 47.38602 18.855518 3.6672049
11.44818 -19.817837 -19.71645 7.548307 -3.227792 -12.101864 -28.53079 41.408466 23.87003 1.3646405
22.385914 -30.951921 -15.18477 19.297295 -0.64658666 -15.623448 -43.60659 26.162651 38.70959 -7.1624613
54.644688 -29.840454 -31.396578 -3.0653954 -61.196014 70.37607 0.99525034 -23.047476 43.153336 -19.520178
64.3303 -28.33307 -63.650974 -43.322666 -37.11294 213.85509 -12.372727 -18.526684 -35.21692 -37.086094
-34.427483 -11.187851 -9.382327 -2.79018 -30.778942 184.49957 -46.729115 1.3105317 -41.174755 -5.1417966
-17.731682 -3.3831015 5.5159287 -0.23151366 -15.711405 50.120384 -17.23048 4.1493173 1.9097184 -8.759514
-1.327719 1.154174 1.0754441 0.70253634 1.2787079 2.8391562 -0.41008532 2.875779 1.4163337 -1.3097141
-0.8284995 -0.40394324 -0.8757597 -0.30570224 0.37280577 0.09290178 0.040185332 -1.3071784 -0.56002164 0.14944847
0.062377624 -0.83134407 -0.66771954 -0.3484851 -3.6179018 -0.56577003 0.08935128 11.908438 -0.712878 -11.584389
-0.6273412 -0.31096 -2.708046 2.650107 -12.346266 -2.0137143 0.72843754 58.56859 0.17983386 -39.921658
4.7022705 -5.881017 -2.4317846 40.59303 0.7235675 -35.595135 -7.903828 50.31774 -0.1889827 -41.23323
-10.732515 -9.635494 -22.158026 37.23962 -33.284595 -17.49303 -2.260553 55.857662 8.365556 -4.9307003
-10.078623 -15.761671 -0.8906914 -17.784042 -14.582727 -10.26633 1.0871 7.9112463 32.612877 24.466026
-3.1322777 -47.862434 2.2999513 -33.4141 22.492077 30.893463 -10.731157 -2.9678922 24.967487 21.183163
3.858063 -30.872139 -24.623762 -65.02385 -0.2107076 15.152367 21.38 1.3848246 66.46942 11.715619
5.2430296 -17.313522 -59.062183 -41.530327 12.632678 16.319054 -8.650322 -25.092943 40.760845 79.18977
-28.458181 -30.142122 -44.20057 -66.84551 53.450977 -1.4681535 22.916418 21.511496 60.213085 11.101591
4.225941 -22.550018 -92.85529 -53.22479 51.600708 -0.30095458 -2.363859 41.908916 46.629406 29.66854
-2.2638776 -7.016228 -86.45335 -24.427832 11.050585 5.339754 -7.724842 26.551529 47.582283 36.523205
-52.081093 -15.347799 -79.318474 -16.001257 71.91737 31.00686 27.998384 -14.234249 31.074821 19.071953
-8.36109 35.971462 -104.661644 32.959858 -100.98076 67.36081 19.867918 9.046793 31.172855 14.357935
-32.56886 42.5636 -56.673523 12.496538 -93.01438 7.05083 -23.681387 66.144485 74.6636 5.434311
-67.25327 58.792084 -60.071175 25.12516 54.716934 -11.951406 -56.89315 42.145363 -1.5030128 17.257605
-68.86875 30.153732 -25.08029 -2.6187153 59.513733 -24.354954 -8.651019 39.287415 -19.828342 22.270224
-10.693021 -22.725813 -38.126213 47.17185 21.486622 -17.843388 -38.58454 32.990643 -24.990492 50.539185
-34.53436 1.4368155 -15.813081 14.691908 2.327317 -10.978428 -34.004463 61.691082 -28.136204 45.69975
1.4950644 -11.341344 41.448017 -2.3822265 1.4655008 -38.26853 -30.537252 9.653295 7.0600224 17.449194
10.546815 -12.305524 -3.3723018 43.651093 -40.252724 -73.93171 -28.594707 28.6604 -14.261168 90.86517
38.740437 -18.95154 1.0137236 -7.0586796 -42.508484 -50.477932 -3.52625 31.286137 5.0258255 52.24205
19.329285 -21.100237 -5.34004 6.8936167 -25.810232 -72.29566 -17.045416 26.135908 55.650837 37.370483
23.987793 -17.30283 -20.16222 -17.951572 -56.40699 18.519737 40.650158 -31.798485 74.28593 -12.1549635
50.75287 -21.382849 -29.383337 -32.854538 -57.649178 95.505424 7.0034175 -25.905716 49.10501 -33.623043
-25.293844 -10.572426 3.3243124 2.4402096 -31.308475 142.47754 -55.98683 -10.741474 -1.9949272 -16.263994
-11.555015 -4.646574 6.155341 0.8324538 -2.848403 37.59681 -36.04054 -0.5689339 17.92455 -6.44716
0.7675141 3.599946 -1.6368229 -1.0180749 1.0955073 -1.0436299 -0.956061 -0.66448426 -2.740814 0.35221845
0.41848275 1.2327397 0.23002394 -0.22474062 -0.43824536 0.019113373 -0.75281376 -0.15342103 0.8082921 1.572814
-0.042732175 0.827065 0.6153275 -0.10227789 -4.407961 -1.7216032 -0.25455254 9.248355 0.6217211 -3.045155
-0.64998317 -0.7719876 1.8725789 0.25550854 -16.42661 -2.695245 1.9447476 59.732357 -2.3402317 -36.350613
2.7266028 -1.5020093 -21.2098 6.360896 -10.409895 -13.722467 -5.9201202 69.568375 12.841512 -38.544178
-2.5818076 3.6292903 -38.573345 -3.8700185 -54.209953 -1.2801439 -1.9693282 58.2318 -2.3590462 44.06307
1.1618352 -9.823998 -71.97216 -30.858105 -10.867391 6.429194 -4.1792884 30.845928 48.553246 39.159634
20.329683 -15.493924 -109.342354 -41.15484 27.210886 40.562775 18.125088 -6.8977766 10.076704 53.10551
-3.6357663 -17.593632 -132.8078 -38.348118 47.581364 4.3263235 30.683067 51.81862 39.9323 16.027271
-19.145681 -10.856131 -68.12465 -53.533012 56.51218 -4.9166856 16.958736 57.863216 -2.5778425 24.820566
-3.3966954 -6.38751 -62.60805 -14.619404 10.129343 -5.23052 22.0555 -23.694141 22.882835 57.898277
-5.876687 -32.014694 -74.46282 43.06064 51.954422 33.862175 -11.473654 -17.535122 -28.41385 37.998306
-0.35209513 -44.53038 -86.407555 -22.41842 55.233707 17.379284 29.055677 23.807634 -6.7048373 31.03978
15.701487 15.505816 -68.253494 4.2231064 118.93812 10.766926 1.680951 -77.06524 23.07089 -41.773228
17.6212 13.928886 -46.06906 -19.247992 17.831648 36.716217 13.831044 -107.077995 59.803703 8.170066
-40.373993 64.6183 -50.769157 59.62855 -66.13346 -21.00052 -31.954857 18.639383 23.696081 43.687675
-72.8958 17.44062 -60.193485 14.347512 7.5223913 5.8045573 -34.328476 57.77247 17.778006 51.218678
-61.651634 23.916933 -41.35757 28.183842 40.35628 -58.40903 -12.15798 44.105698 5.4758515 31.561804
-12.750721 7.6070876 -24.087702 -16.584583 5.918258 -53.536407 -11.875567 45.77688 18.35719 37.653824
1.184113 -0.20753545 -34.74399 7.513877 -19.1757 -29.030407 -22.483768 44.181744 -7.8573575 59.80439
17.992743 -14.16296 27.013903 -14.540759 4.453746 -39.87461 -51.22272 -20.374214 46.093487 47.201385
4.8001585 -4.173827 -11.870389 6.187812 5.7770777 -55.990665 -29.631716 -6.224019 40.068554 47.41246
10.487479 5.3791366 -5.6515155 -77.95327 35.193054 -113.10519 2.0040617 8.420476 72.42764 63.90605
21.922932 -3.1477711 -6.231097 -55.39581 12.1897955 -156.61398 50.164658 7.1217046 65.99667 58.499905
33.436707 -3.6276722 -40.57485 -25.194622 -17.647354 -144.91153 85.73553 -45.110832 104.547035 52.356373
84.95441 -5.37487 17.419441 -16.108295 -4.279528 -141.2097 35.28165 -24.5141 97.93435 -43.36648
0.5677694 -0.19929981 32.21267 2.9272203 -3.1141028 9.545222 -26.676256 4.0112534 3.6566556 -21.304892
-6.6719117 -1.469531 30.352077 -1.7045752 -2.8603995 30.023813 -37.91427 7.1249433 -9.016443 -8.4663515
0.1668078 0.2662356 5.5738215 0.40312394 -1.0855652 -0.4270926 -1.1162951 4.3140163 -3.5920453 -0.7900138
0.2000089 -0.024847167 1.1855956 -0.035023335 -0.89159554 0.07463236 -0.18147178 -0.0050725546 0.96795774 0.5126268
0.10841501 -0.27383485 -1.8964692 -1.2488766 -4.2115264 0.43456733 0.4421547 6.780273 0.6333894 -3.7194035
0.023225725 1.4526736 -0.04564014 -1.0153849 -12.8741255 0.02463241 -0.06897529 35.42024 -1.2138196 -20.311077
5.2244573 4.2110553 -27.40896 -0.9237877 -14.640022 3.801232 -5.112571 60.017185 7.51362 -28.616253
17.2921 11.252285 -93.203224 -36.379715 -27.72861 19.626204 -2.6018693 33.61883 -18.556807 97.04105
-2.2983117 -5.18751 -113.51935 -32.953033 26.006966 27.930807 13.052572 10.845669 17.02434 58.143303
33.22315 -10.320028 -134.92557 -30.74305 56.864788 -19.34357 61.349297 31.81392 -6.2548175 19.892319
33.92801 -14.067743 -94.72518 -31.687708 27.816353 18.879639 5.4580536 21.155327 -0.1230894 33.026066
4.213461 3.3712175 -34.142857 -23.645832 34.00946 -11.196503 5.302894 -2.3895643 -0.89869726 29.803625
6.0381913 2.4975138 -36.970577 -18.737892 44.936096 20.625383 5.2356176 -26.012907 19.296686 -18.63391
13.723867 -53.15739 -31.487417 -6.2301292 54.606407 13.33419 35.945896 -5.8199043 -32.524197 12.498896
-3.7020605 -69.76846 16.463596 -23.589073 58.071465 33.238647 -7.130397 -25.322992 24.134161 -2.427668
7.4988036 25.610605 -24.437193 13.864561 60.877106 52.986073 7.930697 -134.51286 28.75818 -37.539303
-59.336597 21.260191 13.336553 40.878757 -37.474533 23.957233 25.879137 -112.984856 57.625317 25.854319
-79.40453 19.05957 3.155604 36.63619 6.7010527 0.94269896 -23.159351 10.395536 -14.676484 41.444733
-85.6166 20.012436 -38.284325 -16.461794 44.102528 -34.682487 -4.868565 7.0905914 61.618805 48.090065
-56.796677 25.486423 -37.88461 3.8220422 15.448255 -55.675648 9.787055 10.025463 23.666447 63.726
-23.978294 39.796432 -7.5573273 15.430624 12.046654 -7.713118 -34.443153 0.43770164 -27.664923 36.1683
-0.563141 -31.898325 -36.938072 33.022736 24.207819 -16.4083 -17.969227 3.1237962 14.074544 26.222618
-6.7688217 -30.206633 -29.506157 15.045608 3.5220914 10.012418 13.131072 -31.559326 -7.9016733 61.01158
-51.70727 -8.306905 -35.14928 -60.579258 37.693665 4.90021 -5.3873277 33.978207 35.64815 50.847042
-17.030132 -7.7906213 10.727881 -72.12545 38.185555 -27.26827 41.917244 28.752903 -31.23057 44.59321
15.050384 -11.19454 1.750555 -86.02016 38.386517 -24.931572 42.204422 -17.70483 10.795853 38.24517
40.782722 -8.500827 -16.099 -21.511677 -1.8617464 -81.02752 90.52237 -15.206968 50.06948 -28.704002
58.877342 -11.228178 74.546524 -6.867497 -30.659107 -110.455 43.019672 11.087978 36.608307 -65.65445
23.75607 -6.975175 76.81767 1.6695405 4.8088503 -31.912737 -36.072475 7.1944475 -2.9459472 -32.250004
-3.7179787 -2.5403252 67.480125 -0.9138024 -3.7174132 -4.6002445 -38.533436 3.2583566 -6.0097604 -12.7960615
-1.7173301 -0.54720736 23.40075 0.14422493 -6.650235 -11.351371 -3.3084867 0.7408912 0.64411235 -0.99223363
-1.0944216 0.04089274 -1.3939441 1.3274157 -0.23794945 1.3458004 -1.085707 -0.6309836 -0.64366883 -0.57645345
-0.30903035 -1.0935583 -2.1755943 2.0569458 -2.061676 -0.2018848 0.16800909 2.6646447 0.4417218 -2.6269991
1.0385903 0.44824052 -1.971949 2.6378353 -5.8288226 0.06689501 0.12705413 19.953175 -1.2860206 -14.790229
-11.966452 6.65296 -23.881985 3.065194 -0.95902985 9.6519 -2.8735015 24.933867 -1.1669223 -1.8860058
-2.8173287 6.328704 -59.91797 -17.76947 53.573837 10.985893 -27.758041 18.328543 -28.48141 44.862446
19.876972 -8.950385 -73.783966 -48.517418 64.7771 1.7615263 9.389748 15.415634 3.8950372 14.706535
14.600478 -13.474111 -21.135721 -58.045166 36.08847 -4.8945403 31.514936 -20.212214 -22.077885 57.181026
55.58752 -17.134342 20.257582 -38.80129 38.421207 3.2727928 -2.8836982 2.5468042 -75.911224 15.86171
23.239185 4.202721 -11.403645 -8.808845 41.029297 6.8625927 17.548717 -14.768721 -53.7263 -4.241871
36.47062 -16.16638 -13.562376 -9.543578 31.764332 29.622465 38.708595 -43.374184 -56.512222 6.5002537
-20.902603 -54.637962 13.537302 -6.527872 12.096624 32.592907 41.013554 -15.5598545 -3.2965117 -2.0725985
12.6360445 -56.97132 0.7247685 -27.14052 41.097576 3.2069955 48.993275 -63.0456 48.17434 -5.95041
31.135174 36.212776 -20.274355 16.472313 42.582695 -6.5855484 12.65132 -128.85028 31.592531 -12.393547
-17.003391 10.287654 12.528612 -7.2690396 -25.7907 -9.696827 -5.5464478 -56.32153 65.66099 30.33656
-83.314896 40.01944 2.8579307 26.98741 4.828829 -19.877995 -30.564228 -16.291218 39.175526 38.466576
-67.24511 39.119324 -14.705428 6.870465 14.355304 -15.684691 24.980951 -22.306248 11.652145 20.696068
-80.8444 33.119774 -11.217222 -2.961804 40.56781 -47.372948 29.563223 -4.35969 5.9494553 37.661705
-14.35903 -17.63297 -34.324974 12.189302 57.771133 -53.052612 -53.6202 50.73146 27.15908 26.271484
3.7437437 -59.150352 25.691463 4.9037304 23.089449 -14.268163 -12.452161 48.940506 -33.13509 17.859682
-14.472498 -42.030647 -9.281934 -30.062254 47.597736 -40.063522 15.451855 92.62696 -0.8161415 -16.582483
2.8738265 -21.47414 9.547273 -24.552996 22.67216 10.070901 -27.311714 46.09542 -35.21762 22.147356
30.24325 -19.98364 -21.230732 -0.56919163 0.18603936 -18.703705 26.31616 0.62279624 -22.979572 26.396078
15.71506 -9.712 -11.80595 -38.64607 19.86668 18.139826 31.350826 34.734074 -53.139904 -8.980627
42.233067 -2.998741 22.890148 -19.570969 -17.603504 5.7596126 37.341545 57.29603 -58.902622 -69.20423
58.502007 -0.01975301 43.216938 8.610059 -38.872734 -20.449549 45.29876 9.009133 -42.78824 -62.012123
17.23014 -3.410092 64.411224 -4.0341024 -13.814973 -44.99042 -2.627014 -14.732934 12.796132 -14.266114
0.06983429 1.2021623 44.82421 -3.9576821 -13.187061 -5.256112 -20.837376 -0.6335428 0.62567985 -3.330242
0.4546521 0.18012594 1.9309934 1.2015635 -1.3367603 -0.707793 -0.019604316 1.4422215 -1.1079023 0.99842143
-0.036586124 -0.09080442 0.07228394 -0.7038935 -1.1476669 -0.84778047 -1.7401174 0.8711614 0.77007145 -0.5690992
0.4443964 3.1374953 -5.815558 6.4226947 0.04322759 0.23704381 0.48743433 0.59138334 1.4121268 -0.10121306
-1.6369218 1.6652291 -2.9274187 7.024412 3.0823743 1.1368018 -0.24481162 3.5813487 -1.8801944 -11.244558
-12.983074 -0.8152856 0.1382936 -1.415893 13.713265 -2.6635761 -9.890767 9.022805 -1.9588598 -2.5835555
25.285591 -1.468417 5.632307 5.1748133 33.130653 -6.6131234 -47.223972 1.6717721 -21.858131 3.780818
49.983746 -18.144966 44.066 -3.7025433 27.51875 -38.1907 -9.745478 -6.8941603 -54.91046 9.888894
-20.521528 -20.68869 45.542446 4.169328 29.773918 -11.349851 22.268106 -14.002935 -49.120354 13.400815
42.00833 -2.9848437 -11.437097 -31.376522 50.575558 -30.347542 28.66165 -18.749926 -32.929497 4.562218
33.06834 2.4370093 -16.735556 -43.32398 35.958958 12.548265 26.863579 -42.399136 -21.821194 15.051615
24.815474 -26.417862 3.962049 -39.19558 49.536804 10.715998 9.206189 -42.801556 10.157998 -4.00663
17.858751 -53.260128 21.117216 -28.954996 38.31987 11.573096 15.038286 -11.913444 -17.569853 11.128407
2.620651 -7.2103343 -4.3017654 0.59659034 54.662304 -0.21562624 17.1879 -72.39358 -6.349837 10.114587
-3.0316634 35.50105 -6.4955053 6.529704 17.991488 21.747766 22.323046 -88.395424 9.219274 -15.330479
-47.860157 28.634361 17.845438 -3.4562697 -25.156649 -8.360681 16.570955 -22.085056 58.306435 -10.05179
-94.94807 60.740456 17.51288 37.82225 16.763653 -49.099277 18.593193 -33.650635 64.133835 -42.696724
-61.553814 6.8195486 11.326561 28.20203 10.912194 -26.778902 7.9749904 17.209969 -6.6782494 14.272609
-44.561497 49.310524 -1.1965182 -7.239033 64.436134 -15.228744 -17.671364 -43.56637 -5.1683207 18.100878
-39.29906 -49.392227 -21.00452 -17.62141 67.95992 -37.52132 -6.1634693 82.34501 -22.061417 45.603703
11.630105 -50.028225 -23.51295 -34.434452 11.299867 36.89772 -15.935235 58.10369 -6.2029915 10.430953
0.6099861 -53.071545 -1.3547773 2.0037353 29.74791 -4.1077757 10.157797 15.542435 -10.872446 2.2685196
22.609735 -37.119164 -36.14806 56.484783 -17.356316 -11.087747 5.965782 34.44259 -31.324917 8.583869
11.970898 -17.529186 -17.868464 28.646454 -11.194987 0.5871308 24.276924 33.978447 -31.04759 -20.28077
13.025775 -12.93395 -49.45835 26.594748 37.57763 -29.502905 -2.2652595 58.024525 -15.256466 -26.46203
39.370678 -8.431282 -11.176478 44.901085 -9.565109 11.43376 11.632767 30.978004 -49.985718 -52.910748
48.990654 -0.4952804 60.718395 28.594088 -64.45987 21.99714 34.693317 -15.4814625 -59.588303 -53.341602
4.369944 -0.35230216 56.973156 -9.941224 -19.869461 -19.34877 27.096313 -33.008495 7.943939 -16.011606
-1.7702591 1.5224408 40.964737 -2.0925727 7.9010763 -11.118418 -22.661394 -6.381175 -1.0316995 -1.8106897
-1.2327214 -0.52132523 9.549882 -1.9568353 -0.35630876 -6.192957 -4.7515516 -0.41236377 1.736146 0.4842412
0.63513154 -0.026283463 1.0148911 0.37309217 0.6565363 0.35662732 -0.9652103 0.253616 0.11482964 -1.3579465
2.3955781 -0.94674087 -2.520266 2.80691 -2.127985 -1.1295872 0.17974885 -0.4872151 -1.0662823 -1.7126623
-0.13819249 3.9495804 -0.54464984 11.193324 1.4666557 -4.224279 -0.07361732 0.31916797 -2.6653962 -4.3279176
-2.2464209 -0.7605598 43.71399 8.817113 -13.071137 0.017239332 -16.136448 -13.587008 -2.7679515 -3.3474734
33.705235 -0.3976829 45.108482 41.180126 -37.462387 -7.9814396 -44.17736 -10.020968 -29.50032 9.832254
59.838478 -18.498207 27.221914 27.252653 -25.119919 -22.446272 16.896076 -15.422133 -57.377216 4.6297317
32.91455 -29.152933 39.431107 -19.802801 2.0780797 -19.898705 30.08997 -3.5183764 -10.898688 -25.612623
16.360489 -13.699071 13.271178 -39.99414 55.38831 -73.96486 38.976246 12.51194 9.969125 -21.691687
39.35571 -8.547341 -26.103731 -64.15988 36.523483 -29.350798 39.701405 -11.622068 9.689571 15.041396
31.035017 -1.6736599 28.234203 -5.893158 23.771376 -50.0803 34.233845 -25.090483 2.0378642 -37.551704
19.710514 -19.201622 11.105062 -16.12744 -13.173197 -6.1324806 26.324697 -61.80769 40.59803 16.471685
18.847818 -2.410349 27.861927 -2.4255264 -20.894636 -11.016058 78.97849 -109.23503 1.8795142 18.666386
-16.673195 -24.80573 22.102352 0.92289394 11.473342 -24.503841 1.5032214 -23.012823 76.4651 -28.711004
-86.2597 15.69097 49.429844 46.615803 -1.0880164 -6.879149 5.9502563 -14.746605 17.756569 -24.825027
-58.235977 63.98056 27.628239 8.418888 39.66632 -40.83928 11.3968525 -65.16326 9.263418 1.4478078
-31.113012 -9.4677515 -13.901135 -17.028788 60.653862 -2.1640673 -2.0726013 22.228558 5.195536 -8.793504
-23.941473 6.5654025 28.058102 -58.752003 41.542427 -22.497938 -3.4068468 -4.2542634 24.465467 12.541048
-2.0144122 -92.53021 66.84667 -16.798223 21.521425 -8.283558 -33.79551 32.880924 1.743023 27.717268
1.9553634 -52.889187 20.837318 42.679672 17.120928 -35.37385 4.4970503 5.0070324 -24.324986 21.653656
-1.255708 -43.155518 2.0475914 42.398087 14.279305 6.0269413 35.627148 36.555984 -65.07745 -29.11437
30.77844 -20.01961 -19.780586 22.989607 39.0087 13.149324 1.5941132 13.382215 -75.9983 -9.506882
16.606758 -11.5627985 43.699596 0.76499283 18.511206 -2.9125695 18.424522 28.578077 -73.006134 -37.357826
12.6617775 -15.694761 25.499804 26.75803 -5.916377 28.28302 7.992611 -17.68118 -44.752678 -13.007832
18.175241 -13.528037 34.304234 64.99464 -15.580287 12.209916 -17.15853 -11.088715 -2.2363849 -64.44478
15.689511 1.2980942 60.843513 54.126415 -41.525593 1.2154654 11.324549 -19.344618 -33.281498 -52.52638
-10.381059 -6.9679904 113.90415 -17.292343 -17.55094 -14.489581 18.56712 -27.659807 -17.454985 -15.874821
-4.0974116 -1.1600375 70.2166 -3.712215 -12.596542 -17.77825 -15.40343 -6.778232 -10.570955 -1.6310785
1.5936649 -0.36749765 15.134918 -0.44815713 -0.4127289 -8.284665 -6.169793 -1.9975501 -0.355518 3.0715227
-0.42659858 0.66311586 0.2902845 -0.2027323 -2.308909 -1.5206531 -0.22655728 -1.0310527 0.6466664 0.13860165
0.46138987 0.33499092 -1.4712653 1.0861456 -0.4662409 -0.52310437 0.37886903 -0.4004618 0.67224747 1.2595596
-2.8786464 0.086791225 6.4580026 7.038829 1.1867251 -7.4085293 -0.5888187 -0.74476314 -2.1725433 -7.7927265
3.0639381 0.9087779 38.617897 35.72025 -38.63712 8.218272 -12.077813 -13.303119 -7.399442 -14.44103
20.782097 -3.162447 47.242836 51.24358 -25.364408 14.907787 -50.66467 0.8254154 -27.252375 -29.775267
40.679028 -25.964188 36.603527 1.1222364 -29.419937 36.821262 8.819122 3.667922 -49.604565 -22.640411
34.65236 -37.892906 25.398012 -14.161607 -9.979147 54.84714 6.6344643 -24.824675 -7.702343 -28.048866
30.059563 -30.485773 5.887819 0.18050116 31.73218 -43.59247 7.0586963 -42.00176 28.970846 9.131843
3.9590096 -13.881631 9.767422 -34.644833 31.914461 -29.073132 27.135836 -27.123009 10.795263 17.259878
29.323177 -12.77423 10.859413 -62.005516 3.679729 -36.83849 46.090755 -25.271284 59.66923 -16.230717
48.784664 12.98158 57.4603 -65.47302 9.800645 -47.116425 47.886734 -72.80056 -7.320777 10.427298
5.3001804 -6.353666 30.469286 -44.449287 -4.7397246 -25.3984 46.678837 -24.665651 34.64267 -13.735518
3.295129 17.268858 32.687584 -25.369068 -12.418732 -69.4821 -7.5335855 -6.785627 48.981865 23.60182
-62.482475 51.28616 28.58677 -31.836124 16.354803 -53.291935 12.425881 -4.630652 35.417377 1.4699628
-55.59591 52.833588 -1.5416379 -43.605198 67.63797 -30.011005 16.447382 12.032642 15.094371 -31.01785
-35.975166 10.39959 21.71992 -50.883087 33.232166 -0.28552425 1.4317 10.404361 -21.565874 29.890549
-4.0235057 -35.97442 1.1021557 0.6593822 23.978619 5.1463614 -4.6333632 -23.983763 46.226467 -10.584791
15.723358 -69.32381 -29.183899 33.43033 28.303755 38.287933 7.596801 -15.620609 -23.435072 11.372011
-13.907818 -21.562288 -3.244874 -7.1990657 52.921806 44.361572 6.9953213 11.358272 -54.817318 -16.532925
13.763361 -20.524923 9.366697 45.68877 -29.513607 18.597382 17.31478 -30.264694 4.3852305 -33.193146
32.52271 -16.904163 -7.908474 -5.7021565 7.9841294 0.13711905 10.379399 7.4940033 -12.046913 -11.461425
-7.816064 -9.191846 6.4781737 -1.3060764 13.385154 6.3203077 19.30493 4.2760677 -17.161076 -14.797991
17.89809 1.8607467 18.917406 28.818775 -18.896278 -4.8888116 20.904116 12.4583235 -27.151806 -46.903496
6.4004035 -0.2660604 -15.787378 53.35234 -21.830465 18.333008 1.245403 0.610666 28.506483 -66.70729
4.1897683 6.4192467 41.94299 -21.320234 -35.203148 5.1815443 24.995869 20.028309 12.069822 -60.475105
-3.9885414 -2.5148997 127.26439 -33.82091 -34.73367 -22.27037 26.47644 4.7598147 -46.990314 -14.229191
-0.744671 5.116344 31.282856 -1.5214784 -8.286998 -6.2857857 -9.287294 5.6729608 -10.059172 -1.2413349
6.2113724 -0.483812 0.6416728 -1.4951994 -4.0970745 -1.8284172 0.26955587 -0.7267853 0.5801241 -1.0131637
-1.5974456 -1.4185028 -1.1677891 -1.850915 -0.23790623 0.45690745 0.32354152 -0.32105982 1.6710374 0.4759171
0.33281007 1.4132344 -2.6370754 -0.18931878 0.34428075 -0.10534571 0.6533454 0.039601345 1.6915983 -0.41757706
-3.9618163 -0.6183914 1.0715635 4.6846967 -0.23768525 -3.824645 0.31013933 2.981016 -1.5023322 -4.236551
-4.486306 -0.78013325 12.885074 66.22913 -21.465906 3.0769153 -3.6759644 -0.53245485 -20.552132 -27.98973
11.275409 -8.065359 49.54419 31.058517 -1.8996226 49.599052 -33.96808 -11.30899 -48.740253 -38.045902
-0.35072654 -26.908434 79.6955 36.003033 -8.782926 35.432392 -33.80611 -8.594035 -29.92224 -40.645676
1.9567056 -61.692318 19.39029 14.390207 -9.889331 60.484947 10.111308 -43.30653 10.42704 -1.0496794
0.19680256 -47.179222 49.612858 -24.049168 2.036213 10.5537615 21.180414 -33.534454 5.9479966 9.496753
25.749983 -1.5824004 11.609268 -8.503921 14.932599 -12.432954 8.700958 -25.850784 5.748035 -17.67026
41.299614 5.3809557 -9.8767805 -46.50426 15.322159 -27.688316 33.584576 -33.68996 28.188898 -3.7088282
35.788795 -18.248463 21.80389 -48.096947 -48.76817 -16.271568 21.519875 -33.471916 42.203396 39.416218
13.193157 -10.813348 11.389299 -55.091618 -9.949946 -8.570814 0.86803913 -10.097716 34.23067 31.295506
-25.048616 0.61706215 44.950924 -62.914528 19.61046 -13.74354 80.89678 -26.956852 31.342 -46.940346
-68.92001 -4.8908076 34.13964 -23.497435 30.523697 -3.3068929 46.273273 9.133944 -1.4577724 -20.32631
-35.27992 17.538504 29.06672 -29.524996 33.646637 15.808881 -9.142111 -26.38656 -25.715824 29.160908
-9.645026 -28.441916 -6.1315947 26.80011 26.440643 -8.912386 0.028266072 -13.560986 5.3993917 12.299264
10.74771 -46.196636 7.9568067 46.903973 42.15564 -1.4856455 6.8423586 -21.239511 -34.713768 -13.612627
3.9543123 2.763779 42.457157 10.171791 -35.142895 19.370962 20.760386 -9.019625 -40.600636 -13.043465
5.4387164 28.398746 -2.4139824 7.2554736 -13.994591 -23.140438 24.978453 -12.756331 -4.2429333 -7.3348927
-17.144375 -2.3292396 13.055058 22.254244 -20.553013 15.280189 5.466531 -6.877817 1.9848329 -16.29005
-25.169987 10.907529 -6.3076696 8.791947 -2.8313618 -0.95272017 -1.4534973 -1.9607887 7.9845667 9.678803
-15.921243 2.795643 22.254854 43.058865 6.2247944 -0.77261436 -4.3306274 2.5060463 -36.249573 -18.997578
35.49297 0.13050158 20.760881 37.945908 -46.141453 13.466586 0.11107367 -15.026218 -6.1237936 -39.074486
14.517498 6.327314 59.390034 9.534922 -26.015354 27.81513 3.68957 -51.72712 22.31877 -65.10265
0.55470395 16.79381 97.22304 -39.361496 -28.484375 27.93566 16.010523 -22.45368 -14.391185 -52.75845
-1.954954 12.792408 84.5435 -18.992476 -28.851225 -10.582415 18.670572 1.162168 -38.462772 -15.700433
-2.0789163 6.236614 8.96289 -3.6887662 -3.0893147 -1.0080675 -5.1802287 4.2797537 -6.650951 -1.0946043
0.9390445 1.8280752 1.0626225 -0.1644705 1.9517959 -0.37546256 -0.87768173 0.4080786 -0.8654779 -0.6650881
-0.31438392 1.2391423 0.45904097 1.3113618 -0.18905804 0.47439247 1.2015053 -0.14622939 -1.6046547 1.2843535
-0.5849283 1.5096221 -0.22102596 0.1462413 -0.2129311 0.93689543 -0.46477908 6.173803 0.4219675 -3.3990226
-0.67760223 -0.60515535 -0.78155595 4.258297 3.1079066 -3.3360133 0.09960688 3.0785203 -2.033057 -3.3466916
-7.954957 -2.4162436 -11.036116 72.41296 11.089166 4.656813 -6.2428737 -10.217494 -29.45112 -21.133766
-0.7923347 -15.127311 28.249846 34.7902 -5.662822 42.70818 -16.503899 -2.1309094 -37.852375 -28.285969
0.49410763 -50.908913 7.215235 66.16633 12.652415 17.52428 -17.070168 -11.817375 5.7065682 -28.617693
26.403383 -21.914936 -2.3844876 -5.8250027 -2.308764 24.685453 2.3188825 -32.38694 14.538433 -3.916501
17.32534 28.334808 42.236954 -29.208189 0.037127733 2.2333155 11.926467 -53.118206 -33.28904 14.506795
11.765 11.764896 27.239182 -23.276419 -26.967926 38.651047 -11.269058 -20.546013 4.3682914 -12.805972
-3.4075015 30.695717 39.656982 -11.286137 -46.5085 -0.5253377 31.957455 -23.96237 36.36939 -46.874847
21.484213 1.6131754 45.28562 0.8161833 -58.13608 8.920559 48.57458 -85.621025 37.166862 -15.590068
31.077692 -7.974884 11.152113 -23.802134 -0.12133449 0.48572123 72.282646 -29.020523 -16.322498 -37.63218
32.575172 -9.15145 17.624413 -20.805265 -59.43756 6.5356264 52.58453 -7.779674 -0.7712977 -13.3056755
-10.354691 22.01716 52.945454 0.92065877 -25.968174 8.273618 13.558266 -2.4791088 -30.427315 -27.178663
-29.95646 -20.804062 -3.1675944 -0.763657 41.015812 -0.64400244 44.91171 26.690567 -19.925327 -40.244015
-18.139189 8.91427 34.003403 -7.638428 -1.948164 19.947594 27.450457 -14.056979 -10.316519 -32.87333
-26.381992 27.068857 33.23069 5.191561 -8.087846 -18.065435 23.666626 -41.72368 4.335304 -0.31893277
10.521388 -6.0482326 33.791115 48.876236 -29.97016 -20.80212 26.689772 -38.719395 10.295044 -30.215967
-3.0306106 11.868206 14.424612 31.279842 -13.776756 -0.88957644 19.50944 -48.372337 4.8580503 -14.819064
-28.242104 15.089163 -10.773715 34.473763 -33.195198 3.3328812 10.909552 0.12759292 -1.0415187 9.08341
-2.8939295 4.696511 23.660551 -8.517969 -32.175747 34.76329 -2.3711019 -28.995302 3.1934774 8.065174
7.010662 -0.414721 40.292477 25.759678 -3.7024915 14.157924 19.38912 -46.14353 -23.115042 -34.50766
46.0196 8.880062 47.017616 -5.491252 -66.42186 3.7116992 26.963219 -58.97268 42.67555 -43.80427
6.7257886 12.216507 37.82406 15.71139 -46.32314 36.652313 9.04486 -67.27991 29.47652 -31.823923
15.179283 19.659492 31.576937 -18.47299 -32.696087 40.291576 12.274933 -13.246284 -31.220106 -24.181683
-4.021139 20.597624 74.15661 -11.061334 -14.03643 -1.9249932 -7.4114637 -3.9938283 -36.72698 -14.111752
-1.3254185 4.8807764 23.604635 -1.3437792 0.14608221 -8.964367 -7.177662 0.36900488 -7.8137207 -3.704434
0.46220842 0.43173108 1.4682797 -0.80512697 -1.0830524 -1.6862003 -0.07780135 -0.98089635 0.14410709 1.1170598
-0.35255656 -0.30149764 -0.032935694 -0.10956277 0.6290102 -0.20365329 -0.26757243 -0.8539534 -0.8111246 0.22656955
3.6324573 1.0197911 0.23954469 1.4504089 0.9313673 -0.57318145 -1.7739472 -0.5543422 0.41602856 -3.1799617
-0.6503125 0.5113962 6.1813455 4.0010962 3.366067 0.2866797 -0.26837456 -2.2604678 -3.0049055 -4.6766334
-8.786113 -2.3398068 7.170861 59.679195 3.6662252 7.4349985 -5.222423 -13.3600025 -30.737106 -18.05091
13.004516 -7.475272 45.98228 57.88243 -5.4423447 4.1662526 -22.646542 -35.560886 -39.409077 -8.806681
32.285168 -49.679993 37.15182 29.684883 -27.36083 51.091084 -29.729889 -39.52578 -20.468443 14.611307
26.38675 -6.232177 50.014225 56.65852 -25.639572 12.5409565 -29.328884 -56.371857 -3.5144691 -25.511883
17.84182 9.109525 88.29041 22.085064 -55.652554 -26.811089 30.1871 -54.456802 41.29301 -76.62686
27.510878 37.118748 53.04713 12.709017 -61.855186 20.988216 -29.473095 -22.418095 8.474242 -42.239834
29.144886 15.7498 32.641487 47.435562 -43.222187 38.62485 30.546642 -45.431755 -31.05929 -75.38496
34.26923 22.01589 38.40056 -1.4620992 -46.83768 6.4740896 60.910694 -48.49501 13.265164 -77.78987
32.095726 31.53309 51.722862 -9.979592 -5.5058722 19.980621 49.415894 -41.428814 -34.643707 -88.35849
57.689552 26.449697 26.168186 -65.9732 -22.902906 -0.5531218 65.29219 -12.726929 14.133055 -89.42476
7.4659 -3.2059712 10.098094 0.7518195 -45.53287 12.250233 4.5072236 7.4737005 14.062063 -5.528484
12.639799 1.4225934 -7.5653214 9.28622 -2.7875214 -9.915516 71.39679 13.641077 -51.79229 -34.874462
-2.0695207 0.072691485 0.37536484 -18.813326 11.89292 -0.22153282 43.49909 -33.27281 33.55441 -39.843613
-20.839388 41.153847 -10.007273 21.869648 31.38724 15.087452 17.038399 -41.10902 -29.310907 -19.658953
1.6384367 33.6775 -18.014692 23.982666 1.3133802 42.532764 9.900396 -70.137985 -11.345894 -12.556712
5.862797 40.12898 13.094189 29.856392 3.0176287 15.888264 42.19706 -106.98912 -5.4918985 -34.71366
1.8246231 52.049686 33.67357 -2.6379418 -43.68249 25.264086 -10.814769 -58.156708 9.907337 -6.972238
-9.068648 25.787497 35.508247 45.18964 -20.726389 -6.8390207 34.727627 -86.51983 14.2146015 -28.029665
-0.16588792 12.365584 43.138687 0.6455656 -2.4240108 15.355129 12.35952 -67.280785 35.30542 -54.450756
19.662634 17.324768 37.222763 -9.370512 -43.088043 65.45044 -16.143742 -67.2152 40.07684 -39.313957
-6.4314013 7.298744 30.744734 14.815482 -41.270462 16.193645 9.870314 -43.21768 12.334909 -2.4302554
2.0729 9.235048 54.509773 -13.782064 -15.262151 24.398766 -5.271768 -10.553751 -51.610886 3.5274765
-2.8661265 4.0649724 37.168293 -7.932 -17.38473 18.606642 -4.6781416 -7.3959203 -23.39627 6.3977404
0.42311534 5.8816557 7.261716 -0.39024392 -0.057976443 0.99392205 -0.13918653 -0.95814043 -6.3023987 -2.1532784
-0.3988613 -0.05790899 -0.6320258 0.3863661 -0.4171399 1.429773 -0.12367267 0.2673729 1.855051 -0.07131695
-0.20676728 0.2538663 0.06819653 -1.5987307 0.25731575 0.37053722 -0.20561948 -0.3535376 -0.038272593 0.6846868
-0.73083276 -0.3459062 0.3546424 1.3293893 2.1001184 -0.014826626 -0.38798285 -1.3275305 0.1577776 -0.31565455
-3.8371847 0.83061117 13.828698 11.58963 -0.7105715 -3.4057283 -0.3981602 -7.959808 -3.5803998 -7.119034
-2.694852 2.363921 19.887465 47.294533 -9.016197 9.031044 -4.2467384 -20.77456 -22.889936 -12.404003
-5.3910246 16.913897 30.289394 36.50569 -13.669928 42.327534 -26.172894 -43.587772 -20.458954 -10.900243
22.407658 52.028915 22.933699 -8.25945 -10.645746 17.15267 -41.61054 -47.27046 -8.979952 3.1707795
12.7850685 38.342175 25.508549 34.100197 -49.83506 16.295568 -46.557007 -55.781387 36.873684 -22.147606
21.886395 23.317036 17.139511 27.37192 -52.93509 37.093037 -3.2335665 -51.579365 29.617508 -46.319527
-16.507355 18.338661 0.08685714 31.034615 7.5670557 4.2684174 24.44202 -22.63908 -15.712044 -37.194187
-1.1914768 -0.8490354 38.18396 -48.025593 -4.688775 16.972084 29.919813 -34.232777 24.393055 -16.747967
22.233042 30.322247 23.30208 -11.830162 -19.047205 16.46878 16.179573 -12.449264 -40.164738 -25.321678
28.56117 -5.8428183 7.702248 -6.1184096 9.500272 31.275337 33.45105 -26.83974 -13.930775 -54.956295
37.03207 -5.1405134 -11.540655 -1.8171817 -3.2398744 3.425119 64.82492 0.46593404 -35.89435 -54.827427
14.201536 -5.034721 25.547405 2.5753691 -23.266376 13.26437 45.706333 -40.5436 15.288666 -42.83281
9.237414 23.787092 20.91569 -9.789311 -16.60263 30.874273 62.029434 -51.137684 -8.556805 -58.483246
6.256203 32.49528 -13.353827 7.8439407 24.498373 10.85869 28.97994 -11.493786 -21.047258 -64.59393
7.1585565 -4.705988 8.973156 16.084192 -6.6959853 -5.9145174 34.698025 4.107963 -25.197315 -31.192621
-15.506668 -0.18272185 44.764454 -0.57325387 -0.38912565 15.970987 39.99607 -42.038284 11.550063 -50.149254
-16.894945 46.322033 40.272022 18.441662 -18.177784 3.3877025 39.410126 -42.318283 -14.5039625 -57.725574
-28.710964 34.9781 53.964012 35.905537 0.530951 0.38261843 10.454893 -40.387447 -10.923719 -54.179295
-22.662512 51.874752 11.896794 -7.2247458 -9.439986 30.131767 11.539535 -57.830444 25.514236 -33.73227
-8.517229 37.922966 34.76375 -19.962345 4.002556 48.795277 -7.6191444 -73.00162 -3.9794588 -15.803113
9.393031 -18.494658 47.638897 -3.5324135 -13.856555 44.27458 12.714823 -69.05162 25.026592 -34.91723
8.96541 -12.051428 75.48194 -25.856787 -1.9081889 37.663597 -5.5360165 -43.95085 -26.830507 -3.1296177
-5.7472744 7.9172363 50.31403 -21.365587 -8.745594 27.948511 -3.7993197 -7.626739 -49.72291 14.013573
-3.921232 0.20748371 21.872923 -4.573766 -14.503956 22.11885 -9.7073555 -1.7821859 -14.82947 1.1077656
5.0161943 1.14192 1.4267966 -0.6090753 0.5238518 1.8610088 -0.4729502 -2.3828247 -1.7195084 -3.0949688
-0.2680589 0.4846333 -0.018477283 0.72443885 -0.4972281 0.5485383 0.016390659 -0.8313434 0.2159624 -0.23746945
0.17000818 -0.10676588 0.21365765 -2.4098577 -0.85448164 -0.34798333 -0.78829914 0.529713 0.94027674 -1.5057539
3.1759155 0.38320896 -0.4733593 -0.47320575 0.6790506 -2.0352366 -0.21714781 0.020103706 -0.49047738 0.78760827
-0.60791606 -0.2820196 9.819796 14.782696 1.3161011 -0.70093215 -0.31329533 -12.760546 -3.723571 -6.30822
-6.2928586 -1.7690871 22.233725 37.4287 -11.98479 10.691091 -3.167438 -27.993294 -9.384162 -12.2595415
-35.266483 23.898424 27.08341 22.706543 -13.449594 42.50473 -12.568164 -30.67043 -9.798421 -11.250251
4.4570656 107.58444 24.16168 1.9270978 -24.46952 -26.725592 -23.284998 -12.5226555 -5.2112913 -40.210728
0.69635355 63.55176 56.875267 19.112198 -24.010931 -35.621246 -48.87978 -18.244583 14.137217 -26.210773
-3.3344917 15.906249 37.481167 9.940559 -29.495987 1.3070351 -26.941435 17.25505 16.639566 -35.980118
31.500605 11.796477 32.419445 -17.764256 -24.470404 10.763527 -13.124876 -12.32991 -23.286411 6.373714
26.33325 9.816251 38.151764 -4.4019747 -33.540707 11.620377 13.590332 -24.796093 -22.512337 -13.875255
18.313534 -1.4502227 11.677888 -10.401582 -22.586966 -17.594086 17.47236 -2.3821347 4.305072 6.2480993
5.3160543 -34.6466 17.105982 20.082514 -15.657598 9.816326 -0.7910732 -30.85112 40.696003 -6.176214
14.669497 -54.702328 1.6008912 -16.82663 -27.260597 15.440751 34.72412 21.517115 16.016747 -8.125242
70.01534 -35.950138 0.90501565 -18.158312 -2.4040642 18.612625 38.68404 -54.261215 13.229284 -28.596733
3.69267 -15.985176 -18.127842 -9.119737 -15.139342 10.538551 -1.7739013 -10.564585 57.144783 2.7974238
5.1847496 12.188055 -21.825558 16.554935 -27.624054 18.8561 28.594957 -5.278157 22.835663 -50.502808
5.8690505 5.650044 9.293417 6.7852173 -11.313318 21.052994 4.9776783 0.3537374 -9.157615 -32.864243
22.816181 24.678349 -18.249691 25.118843 -1.8419921 0.76030874 1.1839666 -23.542013 20.70295 -51.50182
-8.706096 46.75434 5.3333 17.162664 -4.47108 22.389133 -17.463587 -28.045244 10.815483 -41.335648
-11.133991 34.793324 37.540886 16.657034 40.308674 26.860895 -14.491803 -19.051477 -23.34492 -86.097244
-22.208992 41.227386 37.759903 16.165075 -8.195264 21.05305 18.698385 -66.96926 -7.844765 -24.647352
-4.3255424 -1.0870191 14.390559 0.96097654 39.930195 1.416008 16.831078 -83.909676 19.79161 -10.292833
16.985039 -27.608814 56.937405 14.416591 -1.9624319 25.681961 -18.315811 -55.04327 -19.380491 6.857728
13.610817 -14.89196 33.717213 -9.779372 -12.223733 43.64824 -23.46152 -46.330856 -18.079456 30.525127
-4.610511 -1.2881064 33.838455 -14.938628 -12.480404 28.497509 -7.125512 -8.447024 -24.525465 14.862974
-3.8472726 0.47943544 12.581886 -3.7485554 -13.435086 13.979749 -2.5543385 -1.775673 -5.428083 4.0459504
0.71966267 2.8699028 -4.155671 -1.02432 0.08241989 5.0413795 -0.40819183 -0.9388255 -1.3757105 -0.26002255
-0.67018664 0.9650892 -0.2999908 -1.6456797 0.91335344 -0.51641583 2.8298435 -0.5293257 1.2383147 -0.52244794
0.11446572 -1.1157194 0.45205823 -0.055212352 1.5030448 0.31722903 1.3076102 1.4352912 1.3127825 -0.08074727
-2.0448303 0.9659573 1.3041039 -1.0845851 -0.61061555 0.3641554 -1.2305082 -0.87174183 0.0707368 -0.43139598
-0.15200779 0.16818783 -0.7574901 14.27105 -0.66894376 0.13460279 -1.3135098 -9.702684 -1.1504997 -1.7058123
-3.2234933 -8.013443 -7.2797527 44.585064 -0.58607644 12.132892 -0.7032277 -22.908262 -7.753499 -7.2258573
-24.993107 -4.530504 -5.054025 49.131935 -7.1339107 36.84486 -2.1549249 -3.3041737 -18.143763 -22.170815
-18.01511 52.501602 0.0067489147 38.481983 -13.3174 27.054953 -5.6689897 8.1856365 -53.52314 -34.614662
-11.866291 34.918663 14.392255 42.766556 -2.3755875 -2.699837 -13.785484 25.536427 -45.963985 -36.61972
21.685673 8.852717 17.35669 36.985123 1.8913974 -38.338543 -30.695194 42.862907 -29.157854 -27.686836
24.16303 -4.393619 7.702495 0.6064991 0.6732658 10.302638 -30.880293 -64.97045 37.713497 15.0031185
29.297674 14.737891 18.612804 27.157848 -2.6946082 16.15327 -29.302431 -23.306787 6.6383905 -51.088776
39.225616 -3.2515326 -10.111919 8.996615 5.368275 47.077976 -49.596992 -15.2154665 -18.917141 -4.599738
32.151432 -3.4904592 22.374945 29.288788 12.128984 4.4798956 -30.557285 -44.18019 -13.239508 -8.266977
9.204218 43.85933 2.2299032 -34.106148 -11.311949 -1.6498423 0.9680369 -36.56079 26.952099 -0.8181996
18.104969 9.68271 -32.129677 26.526773 5.2514825 -20.100683 -19.506086 -33.335854 63.0259 -15.037505
22.525644 -27.557661 -1.9368258 -23.509907 13.327737 24.451326 3.1346228 -20.016073 1.5607641 10.156152
20.471691 21.0375 -9.7203 -5.4743166 -17.480274 -2.8856742 -4.9859877 13.825835 13.479482 -25.860668
-4.5644436 0.4321759 -3.1905584 -31.96493 26.635895 26.086031 -6.5731955 -25.002941 40.763348 -24.783558
13.593476 34.273617 -19.09593 11.496962 1.3646464 0.7189332 5.1848764 -13.638782 6.4543676 -36.682755
-39.734283 -11.751246 25.292067 45.82256 35.94391 -37.844482 8.286095 -32.749096 36.520782 -29.422165
-36.382317 10.914872 52.837166 -9.776265 30.291004 -17.16254 15.365559 -50.929527 24.229725 -10.075023
-42.864246 -7.1059055 51.30252 5.158729 28.166359 11.761761 14.373217 -82.05198 34.452003 -9.241048
-19.312088 -19.817722 53.429028 -13.6283245 36.303673 8.481886 -3.4105349 -75.07549 6.7840576 27.141136
-4.88498 -16.678461 59.322678 -33.260418 -18.306578 15.6166 -6.3039303 -38.9606 -9.041577 54.326103
-4.6200314 -14.756714 31.07935 -12.553425 -29.114325 26.147661 -4.0402446 -44.205696 8.077316 47.548965
-11.209833 -7.689054 36.347523 -4.5420237 -15.460972 15.432307 -2.4219797 -16.408865 -13.283061 17.093546
-0.07549375 -2.9964807 11.321989 -5.189129 0.0035292376 7.016378 -1.277294 -1.5306236 -5.0474443 -1.6810519
1.4176943 3.4510086 -2.7515035 0.4746217 0.74906236 3.2407575 0.6932594 0.48285377 -5.8310866 -2.3047478
-0.004700105 -1.4193302 -1.5564945 -1.0223849 -1.2182451 0.09419074 0.6209981 1.6067294 0.45008066 1.1675507
-0.22082983 1.1055989 0.9297166 -0.8354 0.0084549785 -0.13496427 1.7601346 -0.3646497 0.11013795 -0.48026204
-1.174792 0.06749401 -0.8027503 -2.5386603 -0.38768092 0.4554063 -0.6743635 -0.17624988 0.5958707 -1.0184777
0.15855421 -1.067673 -0.3664957 4.8437905 -1.3167899 0.48530138 0.3976226 -4.7392287 -1.5412898 -2.3364344
-1.1321063 -7.7060995 -12.675824 26.339273 0.03895395 6.6679006 -0.985657 -0.68505806 -8.699575 -1.1939743
-1.1569264 -8.435069 -23.423864 43.890415 -1.1545962 1.875273 -0.49071163 16.67839 -37.873432 6.8458133
-7.896037 7.563204 -36.42207 30.024635 -1.3067942 2.752456 0.487602 55.75345 -61.68834 14.207644
-17.36296 -1.7533914 -50.36104 66.69759 2.2843227 1.6881456 -1.3003006 50.578205 -68.15816 12.800704
-24.956825 -13.957328 -40.900696 60.219345 4.2476597 6.214095 -9.660425 47.408096 -45.155502 21.441933
-11.451382 -18.312893 -21.583813 12.189088 -10.370249 22.966265 -18.846828 21.98549 11.889657 10.008831
2.9827616 -7.384351 -5.893186 15.289769 6.793777 43.532925 -27.182219 -4.0813136 5.2325125 -27.296743
4.617674 -13.57233 -27.370884 49.129547 1.1444055 10.745962 -31.9976 -0.28189087 6.0260205 2.5500271
-7.222996 -25.833439 -21.415537 42.24778 29.672102 14.5175295 -50.341934 -5.6809497 47.584347 -24.57671
41.875465 -23.013649 13.588859 22.530178 -19.78666 25.633825 -36.423107 -17.149101 32.113335 -39.248898
29.306442 -22.068975 -9.893322 25.956669 -29.229965 56.082436 -39.708485 10.146208 42.04955 -63.974407
20.278002 -16.93456 32.605137 34.08219 -18.88983 33.672558 -41.556114 -1.8497179 22.688135 -65.6698
-4.7603235 -8.659222 -6.5599976 16.198889 -21.882141 24.319075 -24.956264 -17.228504 34.274754 4.6295924
-6.9818063 -51.91008 -10.478327 29.870428 -3.53872 7.8146772 -1.1676147 -22.260077 74.09611 -17.080923
-6.412426 -5.2186127 15.65207 19.102423 -28.572693 35.203453 2.1738594 -15.429373 -21.54515 7.175388
-26.631716 9.868565 22.290398 -29.829235 -7.742033 29.223087 -7.153537 -40.01253 40.22084 13.613391
-47.24909 16.028973 -9.343796 -24.70155 13.819203 2.4919553 -11.058205 -29.48044 86.24046 3.5028634
-46.411148 3.1494086 -2.0171697 -7.150186 6.9810705 13.555115 -2.4946034 -34.960007 18.10832 53.750874
-32.573456 -5.4748983 31.954395 5.323679 16.020842 2.9607377 -8.985129 -40.49259 -8.497798 36.34875
-16.356981 -15.049362 5.085366 -2.7678418 4.0542345 32.265358 -6.943164 -33.275497 -12.98103 46.643627
-5.9094086 -8.567091 12.358183 -2.4592197 -6.047055 20.71827 -2.1887796 -42.304028 -6.499015 41.33256
-1.0018257 -6.6392264 44.8778 -6.2332287 -5.9397664 10.020323 -0.4470531 -21.017612 -9.182132 -12.090355
0.7373673 -0.2042777 24.623522 -0.250375 2.6461554 -5.784965 -0.8075796 -6.9947352 -4.3214946 -8.858043
-0.21300052 2.3608203 3.4706724 -0.7335255 1.0506631 -0.6674164 0.5350446 -0.24676405 1.0589603 -2.334575
-0.4234215 0.6186688 -0.10025308 -1.1265296 0.4232657 -0.117144294 -1.6131222 -0.4812422 -1.075746 -0.481942
-2.3727584 -0.16533408 -0.6297022 1.8103199 -0.5771154 0.9150453 -0.20230244 0.94197136 -3.0868132 -0.35530463
-1.522707 1.3172278 1.0448048 0.011411969 1.4290315 0.40928507 1.227689 -0.50828415 0.38639414 0.48147145
-0.12510514 -0.76788294 -0.89565814 -0.41744787 -1.5009675 1.4189515 -0.28177026 -1.008012 0.4212493 0.23045215
-1.2668351 -0.21696287 -3.628514 -7.1031413 -1.3698419 6.973755 0.9486942 4.6533313 -0.638425 -1.915309
0.43185264 -7.3930607 -10.158875 -3.129144 1.3132814 11.481058 -1.3333254 16.407944 -18.446556 12.255673
-2.7934787 -14.103505 -12.112698 8.014461 -4.9119816 -1.2019385 -0.5028609 6.3358374 -33.773666 58.813683
-18.628674 -16.475742 -7.1269836 36.290127 -16.683464 3.289445 1.7924867 1.0148058 -27.444633 48.22862
-22.972105 -20.695686 -15.305436 69.482994 -27.283585 0.18415229 -1.3313454 9.61552 -30.781103 29.997826
-28.67994 -9.469534 -36.56087 103.67561 -62.484394 -4.292627 -4.144815 43.42309 -45.223892 40.346813
-34.55914 -8.671314 -53.193516 100.43138 -34.86701 22.514717 -4.4790816 47.58247 -60.226086 29.793009
-55.360886 -52.187153 -40.50036 81.7475 -14.474145 24.778662 -2.662764 17.840878 -5.1601396 47.494267
-56.89924 -40.225723 -42.904865 45.21052 -37.07728 45.836136 -0.7853937 65.898056 -4.517605 23.74059
-72.73675 -2.964124 -18.145775 76.033066 -78.11645 44.182735 6.0889063 39.27795 -44.73218 46.59553
-69.424576 -8.82884 -2.974052 61.722824 -31.937456 40.047935 -7.309695 18.730103 -30.974873 26.198301
-66.360405 -23.594023 18.014791 32.244415 -39.15084 -2.1108809 -10.4181595 25.407652 7.9806623 57.614967
-63.709953 -20.050081 23.80281 10.845361 -28.56587 43.79435 -9.315612 19.033903 23.4215 3.8544424
-38.27711 -40.357674 9.828825 32.34687 -70.815834 32.936558 -7.9012175 15.50509 35.446724 28.729168
-44.651714 -28.195732 -4.9235063 32.809742 -57.281384 39.28607 -3.9671748 -1.5724201 34.01881 32.32366
-42.2546 -9.829592 -38.24173 25.44896 -56.06935 29.39749 -3.1262126 39.409283 13.934331 40.996708
-24.315561 -9.957125 -40.30811 36.194763 -77.460846 32.162914 -1.655606 11.721743 7.9695807 68.242775
-28.65243 -3.2955918 -32.617043 5.2312136 -49.507263 30.163542 -2.3660045 -12.288419 9.12344 84.104095
-21.226313 1.5414903 -27.855343 -15.064428 -27.464659 41.570114 0.7591686 -8.450188 -1.7761078 57.84624
-8.481957 -0.9955015 -25.18488 -6.3669972 -11.74331 45.28883 1.29098 1.2017355 -2.3469887 9.665295
-2.2038069 -0.14530702 -12.314414 -1.5185629 -12.139633 28.391985 -0.1724865 -13.012069 -0.22365049 13.228749
-0.52231055 1.7412903 0.94651616 -0.3412277 -5.001204 14.997824 -0.45228142 -1.6454757 1.6897908 -10.196448
-0.017015345 -0.5544283 3.6412957 0.53267205 -0.3121933 -0.28035745 -1.9776142 -1.5704215 -1.0484647 -3.4667501
0.97630644 2.0310726 5.028954 -1.0078704 1.1301411 1.3853217 0.9250148 -1.2110513 -1.394915 -3.8626103
-0.6645685 0.3326771 0.36962447 -1.1119106 -0.53747815 0.5711121 2.0375106 0.41921505 1.830712 -0.59112173
0.18827222 0.12629534 -1.2037293 -0.4710093 -1.0839002 0.73125786 -0.5193773 0.3484516 0.62643707 -0.4673545
-0.31496775 1.3989577 -0.23022503 1.8667225 -0.4137279 0.08177669 -0.26963302 -0.26288745 0.040697034 -0.27196506
-0.5807466 -1.16677 0.5803721 0.57506776 1.4076782 -1.1838666 0.31070903 -2.0899494 -1.3533101 -0.7639214
0.21664543 -0.5781801 -0.6373133 -0.38847718 0.27985027 0.7893387 -0.7267299 -0.19957541 0.5059459 -0.35090145
0.41898614 -0.91442937 -0.8875499 0.6574555 2.2275271 -0.54906964 0.30414626 -13.093913 -2.1101272 12.548857
-0.51486087 -0.54377055 -1.6095024 3.0263724 0.506832 0.16028413 -0.3636615 -27.854689 -8.836488 29.829382
-3.1671607 0.5485326 -0.97595304 6.303916 -5.901096 -5.7685747 -0.6128261 -26.88902 -11.554894 45.622616
-2.662631 1.5088847 -3.0244546 5.352832 -16.558002 -21.673672 -1.4435698 5.1816845 -8.177241 40.342484
-3.3304334 -0.9119585 -4.8385096 1.2622604 -26.939945 -25.250362 -0.22654888 23.860807 -7.9283266 40.576294
-10.110282 -1.0224931 -4.561433 -2.9401608 -51.738003 -16.442461 -0.06202143 39.84577 -20.271284 65.85589
-8.513512 -10.887834 -5.5262117 6.2236123 -56.346157 2.7685905 0.5325443 33.696037 -29.052507 72.87047
-5.996974 -10.600482 -14.35588 10.855974 -62.82669 25.777376 -0.33375332 24.97136 -21.567492 55.77223
-1.938194 -9.193561 -9.755468 12.061982 -66.98485 21.890554 0.030975709 3.1737957 -24.345327 74.15039
-9.527024 -15.394027 -13.942136 16.760876 -78.91575 13.67669 -2.2170424 39.501495 -25.314701 79.71737
-15.780513 -12.410212 -9.14184 4.6731396 -100.94805 5.9696403 -1.2253133 52.692757 -35.83879 107.159225
-12.941489 -6.334439 -8.64246 6.8019066 -82.50368 23.60074 0.5454305 71.5041 -40.429184 47.77701
-10.265242 -5.0575504 -19.750038 23.87303 -76.00062 2.1309466 -0.5628627 40.234386 -21.264015 65.25854
-12.121925 -7.0437813 -18.979818 24.1299 -73.755165 -9.423897 -1.0585331 42.21754 -9.822294 67.409
-6.863076 -7.1197944 -11.017913 12.922805 -80.795204 -8.409529 1.2786005 33.05435 -12.330029 74.94252
-0.30734432 -5.678207 -2.955133 6.0066953 -64.633606 4.61431 -1.5743188 30.620817 -14.503472 43.984783
-7.5935063 -0.8758155 -1.9642661 -0.11755456 -36.120327 11.283719 -0.11817278 -3.0267336 -5.0942774 40.916077
-9.512902 -1.2825221 -2.7573237 -1.2739797 -12.900497 8.517033 0.7840725 -5.377469 -0.050157554 23.445917
-6.697075 0.9478857 -0.16096401 0.9189588 -9.827361 3.837037 0.7436906 9.958835 -0.83039635 3.4842565
-2.5568717 0.2744838 -0.7574355 0.87643355 -2.108178 -0.44159564 -1.3541439 -0.36396247 0.89018023 0.58105665
0.5064283 0.22252859 -1.2264396 0.32870117 0.14646995 -0.47389585 -0.7334107 0.12045506 0.64323056 0.83951294
-2.2029724 -0.021571841 -0.104765505 0.52821195 0.008444778 -1.9161719 -0.14249992 -1.8270233 0.44882604 0.05864449
2.621136 0.11807597 1.5404843 0.13581039 -0.7946453 -0.92927426 -1.3402876 1.39815 -0.25828642 -0.53954303
0.2645702 0.35247025 0.9355396 1.8021002 0.2768631 -0.25614578 -0.68379873 0.28054756 0.34911585 0.7217415
0.9235349 0.6080044 1.321512 0.31919727 0.24224618 -0.12694843 -0.019089684 1.4159615 -1.8062737 0.6481145
-0.9726134 0.010174749 0.5788039 0.9378995 0.6800684 0.57621115 -0.3722913 0.185631 0.03459379 -0.20207715
-0.34863982 -0.14800887 0.106802665 2.3064718 -0.4395872 0.8523822 0.24563351 -0.7959404 -0.46839038 -0.9510535
0.29051518 1.0909522 1.0211064 0.43358025 1.1994296 -0.83202493 -1.3971503 1.4549325 -1.1551578 1.3940338
0.7638019 0.9772569 1.4839857 -0.3887024 0.53017163 -2.1450825 0.84788 2.4403586 0.11470431 0.26962805
-0.16386023 -1.0893551 -1.7955838 1.1018686 0.9162248 -1.3018377 -0.35228214 0.18241727 -0.6499269 -1.6601982
0.73964673 0.9715848 -1.4119554 0.20357716 -2.08919 0.8366908 0.16414317 0.030577779 0.68509156 -1.016463
-0.33983618 -0.17512593 0.044810653 1.2105281 -10.653021 -1.8326738 -0.2550781 -1.488163 -0.08631243 9.82568
0.2737279 -2.2367096 0.48317713 0.5124913 -7.883925 0.6119339 0.3163096 1.0925958 -0.11947399 6.0543528
0.039767474 1.2891216 0.6629675 -0.6460989 -1.765149 2.4356432 -1.3450615 2.9461803 -1.3438253 0.15321198
-0.9502471 -1.5185196 -1.6251571 -0.8420418 -6.572934 1.4180883 -0.5930908 8.2272005 -3.6605515 1.4002707
0.19468379 1.6032672 -0.80662113 0.015143946 -3.4693317 0.7813704 0.40680444 4.42041 0.87616783 -0.19237578
-2.109021 -0.68419474 1.2737772 -0.7158619 -0.5575849 0.37592977 -1.0567048 3.2203603 -1.6918032 0.065826595
0.041320786 -0.94035035 0.22703265 0.97208416 -2.4776459 -0.5582786 -0.8707545 20.407131 0.1610328 -13.82553
-0.19910838 0.72381306 -0.5507732 -1.9948055 -18.20288 -0.72520393 0.516937 22.028038 -1.7480747 0.042371094
-0.05988753 -1.0467587 -0.92471695 -1.6288762 -7.130085 -0.050492257 -0.4136134 22.43871 -1.2637821 -10.926283
1.1532961 1.0028679 -0.25597748 -2.5938005 -4.38418 -1.8183887 1.407363 16.242655 -0.90445065 -7.403575
0.88972676 -1.162222 0.88326466 -0.44520354 -6.20888 1.8370696 2.025488 14.574366 0.5632585 -3.8881116
0.4837332 -3.2724855 0.6538575 -0.19289863 -4.3114405 -1.8070401 -1.1269912 22.546148 0.15388113 -12.449946
-0.1179136 -0.19182478 0.5523324 -0.63575566 -1.641073 -0.5060769 2.2357748 18.445757 -1.5079124 -15.408148
1.0178514 0.9113234 1.4109093 0.79180026 0.00974232 -0.060028195 -0.9960162 2.6137993 -2.1866333 3.3304324
-1.7039332 0.417044 0.48644093 0.30990672 -0.8291798 -1.2028012 -0.8373616 -0.2306471 0.6342421 3.207657
-7.1752152 -0.7850576 -1.723014 0.10833132 -1.5395784 -0.41440147 0.21560323 7.841885 -2.1818492 3.2129288
-1.3592187 -0.8046677 -0.8557762 -0.8943229 -0.83389133 -0.014004871 0.012262734 3.3387463 -1.8591727 -1.218646
1.5819467 -0.4976781 -0.31932864 1.166109 0.46641722 -1.2352518 1.8168883 -0.18816856 0.2963489 -1.4620571
0.17363563 -1.0344545 0.11328115 -1.7568691 -0.29631567 1.2654258 -0.1136464 0.48605835 0.4567357 -0.40819547
0.6132005 0.84494233 0.12695706 -1.6191052 1.1875483 0.46319747 0.33627406 -0.81952006 0.11203921 -1.4419384
-0.6661436 -1.5068336 0.5991867 -0.50574243 -0.97558475 0.61975574 -0.43695098 -1.9132725 -0.22090322 -2.1624243